svm_type c_svc
kernel_type linear
nr_class 241
total_sv 715
rho -0.0073234 0.0352234 0.0108476 -0.0177538 0.0176195 0.0119559 0.00884537 -0.019852 0.00552908 0.0183011 0.0293088 -0.00387444 -0.00910013 0.0237906 0.00409168 -0.00323107 -0.0231786 -0.00423594 -0.00348169 -0.00460972 0.00387576 -0.00896021 0.0207615 0.0132904 0.0191125 0.012669 -0.00698067 0.00619645 -0.00194107 -0.00746616 0.00929877 0.00169117 0.0270639 0.00721786 0.00700042 -0.00495066 -0.00629694 0.0111539 -0.0116525 0.0240798 -0.00752909 0.0107939 -0.000854573 -0.00976089 0.00511582 0.00532652 0.0119349 -0.0335834 0.0185098 0.017328 -0.00342429 0.0159949 -0.00895545 0.0100823 0.0146738 0.00941087 -0.00173654 0.0170459 0.00137754 0.0203273 -0.393029 -0.00306349 -0.00341966 0.00825146 0.0117603 0.0348599 -0.0204698 0.0141107 0.000625382 -0.00548653 0.00497828 -0.00286566 0.00260629 0.00283207 -0.00334437 -0.00321043 -0.00758686 0.00763694 0.00712883 -0.00229273 0.0173999 -0.00749008 -0.00130212 -0.00470993 0.0586641 -0.0257857 -0.00287041 0.00914764 0.00415472 -0.00207269 0.00543992 0.00112445 0.00506442 0.0155453 0.0745373 0.0291437 -0.00725393 -0.00909449 0.00446873 0.0329262 -0.012064 -0.0147457 -0.00289767 -0.00107013 0.01578 0.00724697 0.0264091 0.004087 -0.00191438 -0.0172319 0.00727979 -0.00157952 0.00647201 -0.00410119 -0.0095674 0.00275656 0.00564374 0.0189783 0.0294821 -0.00754314 -0.00905955 -0.00463478 0.0171885 -0.0119561 -0.0122987 0.0147377 -0.0116415 0.00409554 0.0178604 -0.0165486 -0.00413046 -0.00611086 0.000881849 0.00124712 0.00533846 -0.00629721 -0.00567848 -0.0118963 0.00881422 0.0165504 0.0050694 0.00536663 0.0109231 -0.00512943 0.00124419 -0.014933 -0.00677791 0.0106344 -0.00590913 0.0248577 -0.00483577 0.0394326 0.00131911 -0.00217624 0.0183663 0.0297698 -0.00589265 -8.93105e-08 0.00627824 0.00744813 0.0104655 0.00704776 0.0102563 0.00654061 0.0141927 0.0115777 -6.21197e-05 0.00268838 0.0235934 -0.00471112 0.0517528 0.012695 0.0166136 0.000952374 0.014404 -0.0118314 -0.00485758 0.000442616 0.0159442 -0.007828 -0.00289146 0.0190062 -5.88999e-08 0.000894569 -0.00378416 -0.000455869 -0.00101677 -0.00777217 -0.0141071 0.0170082 0.0323671 -0.00245075 0.0150643 -0.00983225 -0.00571599 -0.000120439 0.00542588 0.036253 -0.0214441 0.0169649 -0.00573367 0.00259741 -0.00621551 0.0126121 0.0149226 0.00569572 -0.000600517 0.0103896 0.00601217 0.0432932 -0.00383485 0.00753475 0.0232165 0.00736875 0.0579931 -0.00654558 -0.0019795 -0.00852184 0.0249908 -0.00783524 -0.00229038 0.0112375 -0.00114745 0.000271279 0.0169127 -0.0147742 0.0314961 -0.0121463 -0.0109134 0.00641277 0.00278313 0.0237299 0.00303504 -0.0105833 -0.00106198 0.019643 0.00212829 0.0178846 0.00684623 -0.0131004 0.0314266 0.00646657 -0.0121245 0.0581545 -0.0120916 -0.00585858 -0.0139552 0.00355997 0.0164959 0.0054276 -0.00464141 -0.0183702 0.0134516 -0.0104366 -0.00841971 -0.0170591 0.00121478 0.0212636 -0.0116743 -0.00458456 -0.00395574 0.0183318 -0.00366464 -0.0114285 0.00274357 -0.0168674 0.0168659 0.00942064 -0.00737404 0.00645575 -0.00757739 -0.00519298 0.0138631 0.00816486 0.00309675 0.00390502 0.00733728 -0.00333073 0.0248096 -0.00518117 0.00741491 -0.0111987 0.00685928 0.00783042 -0.0119959 -0.0185509 -0.00202834 0.00313735 0.0244336 -0.0172886 0.00277522 -0.00212999 -0.0180681 -0.0094639 -0.00162832 0.0105044 0.0115426 -0.0145472 0.0191744 -0.239342 0.000312089 -0.0296408 -0.013064 0.0214288 -0.00705068 0.00419957 -0.0160609 0.05677 -0.00328243 0.0045214 0.0117847 0.00397914 0.00544757 -0.0345483 -0.0160391 -0.00823479 0.00684159 0.0151386 -0.00907902 0.0236096 -0.0117971 0.00508957 0.00588062 0.0624416 0.0285099 -0.000380394 0.00557114 0.0092482 0.00360475 0.0126263 0.00096176 -0.00769916 0.0466669 0.0331421 0.0043827 -0.0127532 -0.00834288 0.000441571 0.0370818 0.000470405 -0.0158669 -0.00618184 -0.0146956 -0.00611446 0.0192567 0.0143116 0.00466886 -0.000790326 0.00988999 0.0866531 0.00264222 0.0383302 0.0488745 0.00141492 0.00617039 0.0188812 0.0150657 -0.0135435 -0.00945695 0.00328338 -0.0033061 -0.00043305 -0.000880493 0.00302537 -0.000145556 -0.0093732 0.0119453 0.00539658 -0.0166306 -0.0171545 0.00138377 0.00776963 0.00956305 -0.00658625 0.00458369 -0.00786797 0.0272474 0.0253984 0.0241905 -0.00758409 -1.41665e-05 -0.0216585 -0.0028499 0.0136023 0.0115943 0.049716 -0.00313417 0.0356902 0.0472161 -0.00152733 0.0774469 -0.000217535 0.00810494 0.0164529 0.0188496 -0.00302756 -0.000826233 -0.00216024 -0.0132912 0.000792769 -0.00101542 -0.006044 0.0062555 0.0401405 0.0457052 0.00115888 -0.0193922 -0.00730932 0.0101917 0.0403947 0.0107778 -0.00724424 0.0759961 0.00884554 0.0143322 -0.000691901 0.0190714 0.00175773 0.00490231 0.0378225 0.0223654 -0.00214116 0.0071408 0.0124156 0.0415486 0.043366 -0.0023009 0.0724187 0.00875102 -0.00337683 -0.00587865 -0.0140109 0.00500419 -0.00859002 -0.00693502 0.0292935 0.0221458 -0.0279983 -0.017699 0.0127837 0.0138168 -0.000957628 0.0289776 0.0168982 0.0148274 -0.00449683 -0.0195825 0.0244104 0.0756828 -0.00338602 -0.0125125 -0.00386969 0.0200345 0.051309 0.00315289 -0.00547118 0.00966982 0.01557 -0.00604352 -0.00639229 -0.0066671 0.00319827 0.000996033 0.0172605 -0.00712141 0.0359985 -0.00267341 0.00727087 0.00112302 -0.00807094 -0.00136673 0.00431141 -0.0049541 0.00434575 0.0173451 0.00544659 7.9638e-05 0.00653589 0.0343886 -0.00551662 -0.0160558 0.039756 -0.0153549 -0.0150921 -0.0154213 0.000119303 0.00897171 0.00285475 -0.00850474 -0.0301438 0.0119401 0.00159167 0.0208314 0.00132851 0.0110456 0.00539852 0.0160328 0.00080697 0.000363107 0.0162684 -0.0211059 -0.0247049 0.0102805 0.00224391 0.0109447 0.0140704 -0.000333296 0.00170993 -0.0184786 -0.0135711 0.00423436 0.00912632 -0.00873509 -0.011306 -0.00210352 -0.00950663 0.0335624 0.0140656 0.000851139 -0.00247668 -0.0175742 0.00165368 -0.0134281 -0.00410698 0.00240049 -0.00948173 0.0227107 -0.0169654 0.000778025 0.0171925 -0.00740052 -0.00636622 -0.00255825 0.00723992 0.0150646 -0.023297 0.00704913 -0.111362 -4.02615e-05 -0.0178443 0.00747253 -0.00810485 -0.00771832 0.0080992 -0.0414487 -0.0155292 -0.00405118 0.0109482 0.0074002 -0.00380549 0.0193843 0.00343631 -0.00112185 0.0200155 -0.0234627 0.000295781 -0.0124457 -0.00567914 -0.0158978 -0.0200244 0.0200325 0.0378099 0.0156837 0.00950199 0.0232374 0.0110124 0.00838697 -0.00437861 -0.0071238 -0.00988111 0.028213 0.00985954 -0.0123005 -0.0220757 -0.011069 -0.0162594 0.0352276 0.00335769 -0.00714791 -0.0072185 -0.0151567 0.0158204 0.0087394 0.0133833 0.014861 0.00559888 0.0190426 0.0231425 0.00392592 -0.0145728 -0.00479026 -0.00386209 -0.0217031 0.00910359 -0.00181003 0.0115291 -0.0056418 0.00362312 -0.0123663 -0.00889763 0.0154086 -0.0123277 -0.0149581 -0.00618701 0.0106547 0.00186591 0.00397848 0.016343 -0.0109289 0.013859 -0.00626302 -0.0022306 -0.00353552 0.00703707 -0.0120572 0.0129314 0.0204559 -0.0241327 0.0130988 -0.0157104 0.00164995 0.00567326 0.0115814 0.00194812 -0.0398656 -0.00597341 0.0334722 -0.00284127 -0.0135593 -0.0143034 -0.0147202 -0.00122188 -0.0220569 -0.00574597 -0.00672231 0.0072199 0.00268214 -0.0200825 -0.0190863 -0.026558 0.0216245 0.0527749 -0.0132886 -0.00779365 -0.0292662 0.0436745 -0.0253015 0.0837367 0.000442448 -0.00594942 0.044693 -0.00921469 -0.00152536 0.0120699 -0.00917417 0.00853848 -0.00258008 -0.0102848 0.00217579 -0.031294 -0.00899431 -0.0175595 0.0473548 -0.011198 -0.000395932 0.00464402 0.000258724 0.00733117 0.00202525 -0.00184117 -0.0025445 0.00540236 -0.0114093 0.0173249 0.0306042 -0.0211667 0.0102527 0.015848 -0.00614232 -0.00503757 0.0103013 0.0426662 0.0220101 0.00858971 -0.0134303 0.0161668 0.0465189 -0.00688892 -0.0123742 -0.000212214 -0.0265208 0.085533 -0.0113039 -0.00397062 -0.0179231 0.0145982 -0.00731074 0.0123646 -0.00394715 -0.00603584 0.00563659 0.00500226 0.0125144 0.0255456 0.0215773 0.00522268 -0.0109839 -0.00627562 -0.00902183 -0.00793636 -0.00366921 -0.011775 0.0311627 0.00332239 -0.0166881 -0.0125792 -0.00981269 0.00868922 0.00123399 0.0124901 -0.0130151 -0.00671341 -0.00455593 0.00694906 0.0369503 -0.0108092 0.0125063 -0.026398 0.0135192 -0.00855911 -0.106965 0.00200976 0.00203895 -0.00401537 -0.0146357 -0.00563653 0.0216129 -0.00647953 0.0127176 0.0116682 0.00220343 -0.011 0.0141121 -0.00545447 -0.0113964 -0.0113161 -0.00733881 0.00199824 0.0126931 -0.00489031 0.0111 0.00800376 -0.0215339 -0.00336527 0.00731803 0.00930644 -7.86746e-05 -0.0162244 0.00421708 0.0168811 -0.0163142 -0.00787324 -0.0177368 -0.00623548 0.00375782 -0.0211696 -0.00026808 -0.00985377 0.00693194 0.00573102 -0.0184675 0.029954 -0.00571485 0.00464301 -0.139866 -0.00453974 -0.00659641 -0.00275343 -0.00571941 -4.54084e-05 -0.0157087 -0.00941131 -0.0191938 -0.00579042 0.00388507 -0.0109145 0.00576286 0.0114769 -0.00638682 -0.000233957 0.0262802 0.0119096 -0.00414442 -0.00643558 -0.0058697 -0.0127318 -0.00579255 0.0115407 0.0155347 -0.00149269 -0.0134726 0.00301492 -0.0224344 -0.0325606 -0.0100499 -0.0178965 -0.00988838 -0.00076759 -0.0020363 -0.00920951 -0.0111202 -0.00508671 -0.0157117 -0.026981 -0.00348814 -0.000823516 -0.00956154 -0.0071874 0.00487398 -0.000551853 0.0314074 -0.00906633 0.00103387 0.0126439 0.0080681 -0.00111356 -0.0207048 -0.00820631 -0.0458546 0.000777409 -0.00230918 0.00533626 0.00342946 -7.13537e-05 -0.0223563 -0.000691751 0.000669983 0.00957776 -0.00729906 -0.00977158 0.000423808 0.000501014 0.00504227 0.0182986 -0.0069203 -0.0155849 0.00110222 -0.00459079 -0.00877194 -0.00930783 -0.0150024 -0.00188054 0.00975351 0.0443941 0.00496057 -0.0101101 -0.000574584 -0.0074836 -0.0266154 0.0122018 0.00382683 -0.00979096 -0.0105045 0.0378593 -0.0145513 0.0157755 -0.00347166 -0.00145065 0.00942319 0.0163459 -0.006267 0.00708017 -0.0232083 -0.028016 -0.00677786 -0.0059163 -0.00234006 0.0103229 0.0262383 0.00800005 0.00650991 0.00526283 0.00825567 -0.0066739 0.0433499 0.00448103 0.00470269 0.0135484 -0.00779881 -0.0107031 -0.00454187 -0.00760671 -0.00597833 -0.00496867 -0.0049098 0.0136902 -0.0038351 -0.00467856 -0.00488127 0.0340106 0.00678504 -0.0084434 -0.0123614 -0.00574859 0.0159589 0.00733229 0.00647809 0.00840016 -0.0100176 -0.0166684 -0.00287062 0.0426745 -0.00826104 0.00475087 -0.00291892 -0.00285356 -0.0036865 -0.0204095 0.00975844 0.00318783 -0.00527745 -0.0069861 -0.00604846 0.0468958 -0.00191941 -0.0232403 0.00699228 -0.0114354 0.0957849 -0.00727873 0.00546343 -0.0176051 -0.00857465 -0.0188447 -0.0136884 0.0124555 0.00486728 0.0098744 0.00602533 0.0193503 0.00350396 -0.00995281 -0.0047128 -0.0335529 -0.00408154 0.00245106 -0.0143251 -0.0222288 -0.00384453 0.00239078 -0.018053 -0.00415327 0.0153606 -0.00174639 0.0421755 -0.0223816 -0.00486503 -0.00933636 -0.0150241 0.0345119 0.00949897 0.00631006 -0.00626888 0.0341533 -0.000446269 -0.00305311 -0.0350709 0.00577168 0.0119565 -0.000128967 0.0003241 -0.0209359 -0.00438528 -0.0170407 0.0193574 -0.00381881 -0.0077013 0.0240311 0.0339857 -0.0234199 -0.00151159 -0.00435319 -0.0114503 0.00708884 0.0115823 0.00723325 0.0111066 -0.00747409 -0.00746813 0.0114516 -0.00628203 0.000309251 -0.00240573 -0.0277063 -0.0078957 0.0028408 -0.0122311 -0.00114166 0.00129268 0.0206619 0.00127069 -0.00445936 0.00885625 -0.0216908 -0.00368645 0.0528972 -0.00833797 0.0410235 -0.0059294 0.00607362 -0.200153 0.00723559 0.0108801 -0.0125592 0.0268607 0.00716187 0.0203233 -0.00469275 -0.00150643 0.00495701 0.00304474 -0.00429286 0.0120268 0.0207009 -0.0177409 0.00982972 -0.00224944 -0.0139076 0.0126448 0.00129156 0.005903 -0.00317933 0.0128161 -0.000750126 0.039901 0.0044613 -0.0115988 0.0297495 -0.0105678 0.00562242 0.00635788 0.00932178 0.00451108 0.0225298 0.0794624 -0.0221144 0.00264078 0.00117474 0.00954822 0.0390362 0.00837983 -0.00724958 -0.00852778 0.00395934 0.00701691 -0.00686793 0.0154907 0.00244287 0.00412955 -0.00511321 -0.0294053 -0.00323637 0.0193858 0.023634 0.000155545 -0.00757171 0.00207737 0.0213505 0.0237873 0.0188529 -0.0128401 -0.0125267 0.00711767 0.000115662 -0.00559824 -0.0269355 0.000605627 -0.00221974 -0.00186056 -0.0235923 -0.0219562 -0.0145913 -0.016796 -0.00026666 7.34203e-05 -0.00628008 -0.00423049 0.0108698 0.028377 -0.0207134 0.00838195 -0.0137783 -0.0120637 -0.00373503 0.0325455 0.0137021 0.00288387 0.0195333 0.016259 0.0284096 -0.00438552 0.0368643 0.00101545 -0.00546154 -0.0150547 -0.0103104 -0.00356512 -0.0102345 -0.00340194 -0.0694994 0.0120622 -0.0146339 0.00143117 -0.003507 0.0362357 0.0216958 -0.00122215 0.015096 0.0429989 0.00842418 0.0736239 0.00908411 -0.000766204 0.020996 0.0210326 0.00546081 -0.00386628 -0.0011064 0.0155232 0.0049524 0.00517661 -0.0213805 -0.0102517 0.000922068 -0.0197544 0.0325282 -0.0056293 0.00893394 -0.0207774 0.0387768 -0.0184065 0.00167246 0.00593557 -0.00924165 -0.00689882 0.000550029 0.035286 0.0579861 -0.0209049 0.00358743 0.0419121 -0.00175935 -0.000951318 -2.50424e-05 0.0108852 -1.28306e-05 -0.00297652 -0.0169818 0.0260995 0.0692034 -0.00394906 -0.122693 -0.00729945 -0.0146279 0.0339046 -0.00901274 0.016501 0.0197843 0.00202805 -0.00752413 -0.00562113 0.0199269 -0.00983605 0.000615724 -0.011214 0.0361752 0.00366105 -0.0121903 0.0104479 0.00240993 -0.00533597 -0.00322982 0.0125938 -0.0290444 0.00424716 0.0116413 -0.0132389 -0.0086907 0.0190017 0.0247093 -0.0546975 -0.0242158 -0.0467439 -0.0473037 -0.0126938 -0.0231587 -0.0136671 -0.036935 -0.0189686 -0.0601362 -0.0438056 -0.0122631 -0.0250871 -0.0559726 -0.0329846 -0.0412333 -0.0188981 -0.011434 -0.0123659 -0.0266043 -0.0175468 -0.0304782 0.00767617 0.0232347 -0.0423804 -0.0499975 -0.0179411 -0.0404255 -0.0236107 -0.0380072 -0.0319908 0.00223717 -0.0480795 -0.0449478 -0.0231005 -0.0124507 -0.0349362 -0.0410641 -0.0431751 -0.0411697 -0.00495149 -0.0512128 0.0055004 0.00275131 -0.00841053 -0.0458659 -0.0144276 -0.0032146 -0.0646778 -0.0124446 -0.0156772 -0.0296662 -0.0317449 -0.0315144 -0.0134403 -0.316479 -0.0245888 -0.00686647 -0.050629 -0.0321964 -0.00870623 0.00515823 -0.0362599 0.00429501 0.00206666 -0.0416349 -0.0255782 -0.0312562 -0.0307631 -0.0432273 -0.015926 -0.0325049 -0.00107857 -0.0386112 -0.000147031 -0.014901 -0.00624947 -0.0439236 -0.0255595 -0.0118495 -0.00187433 -0.0290775 -0.0330055 -0.0575641 -0.000185119 -0.0112176 -0.0368687 -0.0174712 -0.0294738 -0.00341796 -0.00376752 -0.0120035 -0.0307956 -0.0490006 -0.0245004 -0.00496556 -0.0479589 -0.0567007 -0.040111 0.000911327 -0.044871 0.00989576 -0.0454599 -0.0314547 0.0151209 -0.0168969 -0.0474979 -0.0358565 -0.0308149 -0.00645626 -0.0408493 -0.0413942 -0.0333408 -0.0150906 -0.00937627 -0.0448992 -0.0372218 -0.0274639 -0.0280999 -0.0243344 -0.0155103 -0.0633717 -0.0332284 -0.0236774 -0.0456178 -0.00869077 -0.0398262 -0.0203995 -0.0475834 -0.0427007 0.00335196 -0.0298019 0.00660184 0.0525301 0.0108431 -0.0241695 -0.0458154 -0.0293225 -0.00503874 -0.0286745 -0.345332 -0.0369864 -0.0356892 -0.0194817 0.00740924 -0.0420658 -0.0170717 -0.0310309 -0.0431825 -0.00315814 0.0101122 -0.0418155 -0.0479538 -0.0442963 -0.0160746 -0.0206849 -0.0302378 -0.0335067 0.00344531 0.0288631 -0.0366665 -0.0413724 -0.0358797 -0.00281788 0.00109002 0.00684375 -0.0290679 -0.0252999 0.00659351 -0.0299837 -0.0339694 -0.0313528 -0.0573866 -0.0405227 -0.00104083 -0.0262314 -0.0496566 -0.0271713 -0.0327323 -0.0319405 0.00536286 -0.0416898 -0.0400891 -0.0142799 -0.0274776 -0.00841834 -0.00417732 -0.0290212 -0.00891598 -0.0538059 -0.0488392 -0.00557609 0.0688907 -0.0324052 -0.0349016 -0.0141847 -0.0260976 -0.0305006 -0.0449832 -0.00590138 -0.0221788 -0.0184007 -0.0345474 -0.0284082 0.0599516 -0.0153646 0.00645091 -0.0413018 -0.0408502 0.065156 -0.0494279 -0.0602655 -0.0167856 -0.00170723 0.0225913 -0.0323704 -0.0370657 -0.0406155 -0.00466494 0.00175365 -0.0312482 -0.0327795 -0.0292677 -0.0209131 -0.00885658 -0.0359455 -0.0623803 -0.0258821 -0.0409068 -0.030054 -0.056338 -0.0139484 -0.0536959 -0.0169707 -0.0143703 0.00213285 0.0126971 -0.0152858 -0.00275534 -0.00974042 -0.00114411 -0.00532599 0.0318947 0.0179358 0.0038001 0.0189678 -0.00351611 0.0230582 -0.0225602 -0.00380908 -0.0026541 0.0260817 0.0124635 0.00957821 -0.00709574 0.0166867 0.0166593 0.0381724 0.00620793 -0.0022978 -0.0171034 0.00711758 0.0151273 -0.01656 0.0121993 0.000471492 0.00141804 -0.00855562 0.0198654 -0.0026778 -0.00619183 -0.000803616 -0.0247219 -0.0271403 0.0106058 -0.00345377 -0.000132249 0.0157368 0.0431546 -0.015318 -0.00514096 0.00321545 0.0185604 0.0166431 0.00324546 -0.00190077 0.0392316 -0.0122707 0.0121406 -0.372588 0.0333504 0.0045719 0.00560859 -0.0102185 0.0214515 -0.00899754 0.0330641 -0.0132696 -0.0177818 0.00871168 0.00315699 0.0134908 -0.00923798 -0.00403496 0.00558263 -0.0111422 -0.00170964 0.00242363 -0.00148404 0.0138884 0.00565198 -0.0030596 -0.013663 0.00298848 0.00540595 0.00329924 0.00732128 -0.0289496 0.000147027 0.00386091 6.23254e-05 -0.00123302 0.0548458 0.0590932 0.00142558 0.013936 0.0114922 -0.00280116 0.0416988 0.00182966 -0.00592394 0.0130883 0.0280672 0.0426613 0.00703454 0.0259712 -0.00735385 0.00214824 -0.00233858 0.0470663 -0.00287109 -0.00344722 0.0191345 -0.000585196 -0.0154083 -0.0108317 0.00974581 0.0114299 -0.000589532 -0.0150884 -0.00552683 -0.00349066 0.00470361 -0.0210116 -0.00613948 0.0138658 0.00551212 0.0206404 -0.00071212 0.0118129 -0.01024 -0.00956878 -0.00124942 -0.000627995 -0.00864473 0.0182667 0.0349248 0.000749997 0.0793076 -0.00635656 0.0017731 0.000421491 -0.00507017 0.0253014 -0.109995 0.032423 -0.0277647 0.00663252 0.0136073 -0.00135839 0.0303861 -0.0002204 -0.0206408 -0.00642371 0.0134393 0.027436 0.016367 -0.0109901 0.0286899 0.0212629 -0.00140849 -0.00690314 0.0123386 0.0390654 0.0162469 -0.00438551 0.00112462 0.00209589 0.0266425 0.0413843 0.00736411 -0.00048548 0.0772669 -0.0107969 0.00703341 -0.0119534 0.00269533 -0.0104275 -0.00166704 0.021937 0.0122365 -0.00517955 0.000447233 -0.00606039 0.0527164 0.000543963 0.0147953 0.0240326 0.00235038 0.0100939 -0.00871521 0.00829105 0.00846252 -0.00473779 -0.00170286 0.0157503 0.0682401 -0.00592829 0.00915055 0.0385685 0.0265405 0.00480938 -0.00805464 0.00592095 0.00121939 0.00292217 0.00534236 0.0129549 0.0414353 -0.000419217 -0.0212417 -0.0106204 -0.0275524 0.0319584 -0.00936518 -2.65583e-05 0.0108975 0.00317241 0.00197467 -0.000752568 0.00765005 0.00642516 0.00913534 0.00859248 0.00233422 0.0137461 0.00091345 -0.00280873 0.00743893 -0.00590699 0.0271804 -0.000761711 -0.00691273 0.0130882 0.00947418 0.0126862 -0.0107862 0.0199215 0.0239938 -0.00533345 -0.00254416 0.0424695 -0.0225507 -0.00912273 -0.00440667 0.0387793 -0.0105092 0.000169938 -0.0292578 0.0183247 0.00195522 -0.0179592 -0.00291555 -0.0114096 0.0315497 0.002945 0.0173281 0.0186898 -0.0111194 0.0420138 0.00193486 -0.013996 0.000219438 0.000637612 -0.00730649 0.0069037 0.0103543 0.0103465 0.00655901 -0.0206402 -0.00438232 0.017901 -0.00145383 -0.000690105 -0.0187555 -0.0299282 0.000515859 0.0135818 0.00513708 -0.00802795 0.00207042 0.00326618 0.00900775 -0.0105958 0.00143597 0.00104716 -0.0225557 -0.0258958 0.0127071 0.0336525 0.00416036 0.00404485 -0.0705639 0.0101365 0.00550999 0.00822302 0.00600245 -0.00749163 0.00447269 0.0163935 0.0228389 -0.00363228 0.00293788 -0.0208445 -0.021901 0.0172996 -0.00651023 0.00622725 0.00214837 -0.00749705 0.000815451 -0.0022659 -0.00416206 0.00339247 0.000334434 0.00670243 0.0654367 0.0113403 -0.00181463 0.0316302 -0.0008031 0.0180417 0.0227767 -0.00232555 -0.00653776 0.0469767 0.0303067 -0.00966134 -0.00266252 0.00266695 -0.00271326 0.0378908 0.00328539 -0.00591052 -0.0230473 -0.00503636 0.0241342 0.001557 0.0359044 0.00604146 0.00454941 0.0211433 -0.0129804 0.00102997 0.0159462 0.0134558 0.0166881 0.00435422 0.0130815 0.0343569 0.0198797 0.00575317 0.00968942 -0.0158573 0.00950379 0.00136925 -0.0175764 -0.0171261 0.011685 -0.0248487 0.00473402 -0.00899972 -0.0142075 -0.00505637 0.0176441 -0.00253377 -0.00907441 0.00345156 0.00353521 0.0115524 0.0185968 0.0241958 0.00379486 -0.00129566 -0.131155 0.00667578 0.0205224 0.0121741 0.0203658 -0.00705269 0.0158371 0.0169391 -7.06914e-05 0.0232332 0.00823728 -0.000958689 0.0122605 0.0421383 -0.0330324 -0.00237056 -0.0110934 0.00521439 6.36754e-05 -0.0123618 -0.0127725 0.0225954 0.0434603 0.0277674 0.0132446 -0.00840326 0.0314682 0.0183442 0.0707666 0.00774837 0.00733138 0.0581184 0.0152534 -0.000621002 0.00259945 -0.00502594 -0.00198217 0.00323951 0.00820342 0.0363966 -0.00103299 -0.00544737 0.0102993 0.0380371 0.0039293 0.00337987 0.0205279 0.0208363 -0.0257247 -0.00173248 0.0146283 -0.00782329 0.0112683 0.000281199 0.0171737 0.0231691 -0.00295448 -0.00218186 0.0247951 0.0210152 0.00288281 0.039158 0.0172821 0.00389872 0.0190538 -0.00939028 0.0216283 0.0563294 0.00468369 0.00326025 0.062186 0.00166019 0.0546098 0.00788689 -0.00179731 0.0192617 0.0443535 -0.0156318 0.00775819 0.016112 0.00338155 0.00764762 0.0207852 -0.0103933 0.0137157 0.018222 0.00409016 0.00474797 -0.0135687 0.00311637 0.00847954 -0.00177656 -0.00259923 0.0185368 0.0105996 0.000292343 0.0139147 0.00275282 -0.00569465 0.00291292 0.0219451 0.0159263 -0.000881851 0.00784543 0.00149158 0.000730204 0.00740497 0.0263981 -0.00759268 -0.00359331 0.00523332 0.00169009 0.0178887 0.0128831 0.019707 0.0185323 0.00393055 0.0218504 0.0203204 0.00303872 0.018554 -0.00466973 -0.00441681 0.00278383 -0.01226 0.00346677 0.00192115 -0.017694 0.000970615 0.0242696 0.0175301 0.00381207 0.00331527 0.0172257 0.00397922 0.0040076 -0.000502676 0.016123 0.0188005 0.0430554 -0.016137 0.000436664 0.00313123 -0.00722191 0.0214971 -0.000989208 -0.00353768 0.0339773 0.000416286 0.00620071 -0.251972 -0.00212675 -0.00127092 0.00535662 0.0148578 0.00861447 0.0120308 -0.000595972 0.00803656 0.0061585 0.00582148 0.00604181 0.0112342 -0.00750509 0.00505339 -0.00134877 0.0116842 -0.0201226 -0.00376423 -0.0206216 0.0406578 -0.0130166 0.0113722 0.00521496 -0.0260964 0.0174727 0.00401038 -0.0109922 -0.00149335 -0.000874714 0.00628471 -0.0122382 0.00558124 -0.000934225 0.0631889 0.0152176 -0.00942457 -0.0142674 -0.00624196 0.0156206 -0.0011493 0.00822787 0.0117686 0.000665298 0.0202965 0.0128735 0.0101747 -0.043855 0.0109812 0.0208515 -0.00863682 0.00683336 0.0130638 0.0112002 0.00249874 -0.0108507 0.0136428 -0.00801873 0.0227911 0.00548284 -0.00366666 -0.00690005 -0.00499297 0.00613227 -0.00337112 0.00449113 0.0107509 0.0117579 0.00497808 -0.00820105 0.00466036 -0.00121428 0.00226833 -0.0189974 0.00292325 -0.00120593 0.0176854 0.00111944 0.0274879 0.0103371 0.00888199 0.0119774 0.0048011 0.00530197 0.00738966 -0.0032727 -0.0225976 -0.0254166 0.00438876 0.0343351 0.00580892 0.0370542 0.000989285 -0.012583 0.0257629 0.00187133 0.00319011 -0.00788234 -0.0160862 0.0115904 0.00824428 -0.00762065 -0.0163994 0.0111566 0.0436831 0.00823912 0.0114898 -0.000286147 0.0439372 0.00962758 0.0400163 0.00891423 0.00943501 0.0332001 0.0091836 -8.83628e-05 0.00310762 -3.96112e-05 -0.00625908 -0.00664434 -0.00432199 0.0272201 0.00169024 0.0049094 -0.0017271 0.0562577 0.00927647 -0.00307903 0.0265615 0.00968342 0.0159472 0.00720988 0.00464985 0.0031887 0.00720701 -0.0146571 0.0181698 0.0481513 0.00582292 0.0142616 0.014032 -0.0151978 -0.021918 0.00654189 0.0224514 0.0116475 -0.0121971 -0.00730568 -3.35872e-05 0.0701698 -0.0117709 -0.0110862 0.0251766 -0.00332572 0.0854663 0.0010245 0.00140902 0.0250359 0.0054579 -0.0101646 0.0101609 0.00795892 0.00193866 -0.000219099 -0.0125104 0.0169715 0.023481 -0.0121128 0.018153 -0.00418866 -0.00651817 0.00214322 0.00429517 -0.00255938 0.00635703 0.0299553 0.00186931 0.00386974 0.0226412 0.017599 0.0175853 0.0419203 0.00598515 0.0164455 0.0112319 0.00894662 -0.00558499 0.00141515 -0.00626767 -0.0101626 0.000979341 -0.00149131 0.00364442 0.0207032 0.000877624 0.00779806 0.00703851 -0.0130359 -0.00154925 0.0177968 0.0120949 -0.00737877 -0.00325067 -0.0069863 0.00343324 -0.030055 -0.000591728 0.0063264 -0.0551093 0.000509159 -0.00558115 0.0062256 0.0428213 0.00405091 0.00217844 0.0285874 0.00577392 0.0187319 0.0395263 0.0244708 0.0141636 -0.0154957 0.0166929 0.00261372 0.00746931 0.00740571 0.000126776 -0.000530207 0.0214607 0.000326082 0.018279 -0.323191 -0.00270017 -0.00674216 -0.0175788 -0.000907897 0.00105294 0.00696626 -0.0076879 -0.00390356 -0.00718271 -0.00214837 -0.0105322 0.00632926 -0.0179702 0.00280384 -0.00183105 -0.00294193 0.00250411 -0.00668219 0.0108082 0.00151965 -0.0180845 -0.00207179 0.0236905 -0.0545375 0.0166879 0.00237023 -0.00866645 -0.00160333 0.0111358 0.0121995 -0.000705266 0.00715395 -0.0251168 0.0618892 0.0147228 -0.00135922 -0.00165041 -0.0149541 0.0110302 -0.00875123 0.0264714 0.0120496 0.0105804 0.0143391 0.0151985 -0.00159993 -0.00880965 0.010765 0.012394 0.00162319 -0.00033254 0.00591777 0.0148054 -0.00124581 -0.0116986 -0.0110127 0.00204667 0.028998 0.00222493 0.0157231 -0.00266093 0.00563139 -0.0103163 -0.0109767 0.0106095 -0.0196547 0.0160662 0.00708455 -0.00131325 -0.00200056 -0.0172198 -0.00892715 0.0119877 0.00364095 -4.38175e-05 0.014926 0.0105805 0.00125275 0.0279519 0.00209424 -0.0161587 0.0066216 0.00381668 -0.00352597 -0.00979813 -0.0275945 -0.0122864 -0.0153483 0.0789236 0.0034099 0.0402506 0.00200529 -0.0185449 -9.45796e-05 -0.00329521 0.0175789 0.00887735 0.00384331 0.00773479 0.0063327 -0.0107673 -0.00602874 0.00351865 0.0352767 0.0242124 0.00158729 -0.0241302 0.0455596 0.00766202 0.041756 0.00120244 0.0115492 0.0268771 -0.0167873 -0.00148549 0.00190775 -0.0197128 0.000253986 -0.00695521 -0.04143 0.00280984 -0.000955114 0.00828302 0.0190131 0.0582256 -0.00451638 -0.00460776 0.0289857 0.00263559 0.0342182 0.0146882 0.0236007 -0.00786758 0.0129116 0.0113571 -0.00122313 0.0450242 -0.0199463 0.0282697 0.0223666 -0.0387017 0.00773985 -0.011103 -0.000287138 0.0169033 0.00907576 -0.0258118 -0.0310335 0.0244615 0.018155 0.00907664 -0.000534412 0.00745817 0.0857481 -0.00732466 0.00589134 0.0208066 -0.000931621 -0.00204421 0.00654213 -0.00360081 4.09484e-05 -0.00759158 0.00530709 0.0043704 0.0152927 -0.0208012 0.0114952 0.0181015 0.0131824 0.00614402 -0.000709251 -0.00305263 -0.00802344 0.000495679 0.00151937 0.0176076 0.0179259 0.0322228 0.00184416 0.0452107 -0.0495993 -0.082957 -0.0222481 -0.0398484 -0.227474 -0.0174394 -0.0231459 -0.0412461 -0.0203097 -0.0148589 -0.0241232 -0.00974881 -0.037119 -0.00297439 -0.0218719 -0.0644911 -0.00167203 -0.0537844 -0.000375743 -0.0295475 -0.0452351 0.00445491 -0.0134038 -0.0216324 -0.013465 -0.0104731 -0.0336219 0.0315881 0.0311561 -0.00752146 0.0195246 0.00998397 0.00479246 -0.019528 -0.0399523 -0.0173008 -0.0209629 -0.0338158 -0.0453875 -0.0312677 0.0047746 -0.0334123 -0.0260598 -0.0254282 -0.015315 -0.00724793 -0.00478095 0.0366341 -0.323043 -0.0273731 -0.0287043 -0.0235155 0.0224095 0.00811917 -0.023691 -0.00665278 -0.0320501 -0.0389705 -0.0131706 -0.02558 0.0630957 -0.027746 -0.0319327 -0.032939 -0.00634359 0.016047 -0.00777169 -0.0130051 0.00877278 -0.0249324 -0.027326 -0.00150417 -0.0584218 -0.0289878 -0.002845 -0.000582004 0.0112415 -0.0686777 -0.0344777 -0.0163756 -0.0421534 0.00648864 0.00785317 -0.0318048 0.00651586 0.0161254 -0.0355749 -0.011739 -0.025765 -0.0393632 -0.0219417 -0.0162509 -0.00384115 0.0299759 -0.0583882 -0.0461899 -0.0181047 -0.02759 0.0112941 -0.00941455 -0.0356891 -0.0205109 -0.0737442 -0.0334447 0.0240739 -0.035331 -0.0549169 -0.0316611 -0.0429068 0.0130461 -0.0170128 -0.00269136 -0.0421947 -0.00103156 0.0169469 0.00258522 -0.0303123 -0.0132047 -0.00889243 -0.0148577 0.00163525 -0.0182026 -0.00645635 -0.0250553 -0.0231904 -0.0106075 -0.0397998 -0.0158018 -0.0109924 -0.0129562 -0.00518064 -0.0203712 -0.0375155 -0.0604318 0.0188443 -0.0339497 -0.0340986 0.0264276 -4.52995e-06 -0.0163195 -0.0119735 -0.0464644 0.00607086 -0.00854771 -0.0626478 -0.0197989 -0.0406049 -0.0376794 -0.0223905 -0.0331075 0.00940238 -0.0241616 0.00310982 -0.0170763 -0.00216426 -0.0286524 -0.00397431 0.00741732 -0.00424857 -0.0294111 0.00450927 0.0292656 -0.0682284 -0.00890509 -0.0168413 0.00837182 0.0279163 0.00259607 -0.0557951 -0.0191546 -0.0329698 -0.0291401 -0.0469805 0.00499749 -0.00475896 -0.0295578 -0.0484454 -0.0258054 -0.0323109 -0.0400041 8.80314e-08 -0.022853 -0.0101375 -0.0251878 -0.0554106 -0.0050239 -0.0493302 -0.0154343 -0.00184911 -0.0277982 -0.0398039 -0.0279898 -0.00675405 -0.0191288 -0.0416392 -0.0247575 -0.0217436 0.0178524 -0.0459221 -0.0463176 -0.0380976 0.00630665 0.0560092 -0.0374266 -0.0164479 -0.021286 -0.0465762 -0.0251248 -0.0392708 0.000247354 -0.0192344 -0.0659081 0.0292219 -0.0326523 0.0322397 -0.00228547 -0.0226369 -0.0745388 -0.0189312 0.00263535 -0.0200694 -0.0516258 -0.0239212 0.00740896 -0.0299081 -0.0506267 -0.00578378 -0.0260818 -0.0239688 -0.0225739 -0.0135916 -0.0174226 -0.0102975 -0.0270842 -0.00143458 0.0149239 -0.0267632 -0.0199692 -0.0254638 -0.0122633 -0.00722246 -0.0217819 -0.0091723 0.0125665 -0.0137959 0.00213172 -0.00819938 -0.0103621 -0.0272177 -0.0243397 -0.00826666 0.00176293 0.00363665 0.0118487 0.00578087 -0.0183968 0.011175 0.00308079 0.00303999 -0.0292365 -0.0301548 -0.0336323 -0.0277092 -0.0166676 0.0326504 0.00908418 -0.0014844 -0.0017551 -0.00203227 -0.0228485 -0.00816725 -0.0552046 -0.0184607 0.0144459 -0.0154706 -0.0224378 -0.0366868 -0.30068 -0.0315023 0.00147297 0.0063411 0.0215168 -0.00398533 -0.00491258 -0.0279755 -0.00703768 -0.00950366 -0.0079529 -0.0214575 -0.0199079 -0.017895 -0.0166171 -0.000710636 -0.0043356 0.0172418 -0.0119216 -0.0128104 -0.0186379 -0.00756228 -0.0231779 -0.0156009 0.0428069 -0.00402239 -0.00621374 0.00628698 -0.0203238 0.0055896 -0.023385 -0.0191187 -0.0103433 0.0458268 -0.0125751 -0.0158934 -0.0224079 0.00139774 -0.018312 0.016532 -0.000739062 -0.0112283 -0.00599303 -0.0121429 -0.00717294 -0.0332355 -0.00342473 -0.0233483 -0.016916 -0.00732636 -0.0260186 -0.00698698 -0.00718599 -0.00408954 -0.00338523 -0.0187038 0.00180651 -0.00341586 0.0365572 -0.020605 -0.00858991 -0.0273887 -0.00670811 -0.0155917 -0.0120812 -0.00708853 -0.0169822 -0.0183625 -0.0105774 -0.0128905 -0.0203265 -0.0155813 -0.017491 -3.33141e-05 -0.0465498 -0.027977 -0.0100518 0.00295381 0.00298755 0.00232739 -0.00734296 -0.0147152 -0.0724976 -0.00955008 0.00265625 -0.00743588 0.00363661 0.00245671 -0.0199572 0.0624483 -0.0265751 -0.00143893 -0.0141883 0.00172829 -0.0143591 0.0349574 -0.0140552 -0.00261704 0.0163094 -0.0239311 -0.0130512 -0.0437964 -0.00281997 -0.0136746 0.0319659 0.00176155 0.0421209 -0.0268706 0.0472034 -0.0115568 0.0447623 -0.00060536 -0.016156 0.0494023 -0.00527361 0.00253086 -0.0119227 -0.0199935 -0.00638869 -0.0292245 -0.0533672 0.00590445 -0.0032106 -0.00069626 -0.00455187 0.0261677 -0.0369059 -0.016667 -0.0186131 -0.00880018 0.0180141 -0.0104343 0.00685252 -0.000584369 -0.0247165 -0.00426684 -0.00722218 0.0341821 -0.00935267 0.00102848 -0.00202685 -0.00993347 -0.0119509 -0.0101994 0.00947456 0.00212973 -0.0167625 -0.0154043 0.00490894 0.0560979 0.0136661 -0.0221082 -0.0140661 0.0221814 0.0357775 0.0146315 0.000455839 -0.0164783 0.0317775 -0.0162773 -0.0134221 -0.0128262 -0.0257815 -0.00556438 -0.010244 0.0199356 -0.0313358 -8.78573e-05 -0.0090628 -0.0130089 0.0114791 -0.00587224 0.003302 -0.00276176 -0.0176485 0.00518258 -0.00248657 -0.0106473 -0.0101021 0.0324279 0.0132717 0.000417935 -0.00205781 -0.00119022 -0.0101384 0.0176302 -0.000369 -0.0177226 -0.00243116 -0.00509617 0.0014913 0.00525133 0.0304402 0.00354392 -0.0182731 0.0104683 0.0192166 0.0116717 0.00207232 -0.0183533 -0.00197987 0.00197055 0.0104539 0.00358371 0.00572611 -0.00885377 0.00818384 0.000637532 0.0164776 0.000515279 -0.00985912 0.00100927 0.00662855 0.0125344 0.00427067 0.0293678 0.0307715 0.00472132 -0.0123402 -0.00635042 0.0254816 -0.0115034 0.0259037 0.0134289 0.0156484 0.00545864 -0.00166714 0.0287754 -0.199708 0.00302873 -0.0184051 -0.00456036 0.0364087 0.0309278 -0.00208626 0.00479454 0.00707797 -0.00499058 0.00300238 -0.00345534 0.0364621 -0.00364267 0.00298342 -0.00508267 0.00627187 0.0195063 0.00395292 0.0062866 0.017299 0.00724631 0.000378152 -0.00052604 0.0405325 0.0223517 0.0080242 0.00842848 0.0166279 0.0207866 -0.00345107 -0.000700448 0.0222687 0.0341771 0.0755241 0.00192998 -0.0171548 -0.00452054 0.0125303 0.023145 0.00528861 0.00794683 0.015046 0.00513561 0.0310309 0.010028 0.0110302 0.0121847 -0.00345496 0.00285535 0.00525829 0.000774075 -0.0226373 0.0126114 0.00746774 -0.0103872 -0.00850843 0.0119643 0.0229376 0.0099943 0.0133236 0.00709381 -0.00441186 -0.00747516 0.00109962 0.0106573 -0.0147896 0.00969924 0.0231702 -0.00793397 0.00369526 -0.0188877 0.0134225 -0.00729098 0.0054857 0.00145249 -0.00539333 0.00678805 0.00606569 0.0395609 0.0191756 0.0116675 0.011535 -0.00980082 0.0185062 0.0104539 0.0228229 0.00617733 -0.00902032 0.0589916 0.00860447 0.0454416 -0.01738 -0.00475663 -0.019366 0.00514769 -0.00263131 -0.00319862 0.00649102 0.00220387 0.0168582 0.00267575 0.0196539 0.00323465 0.0428015 0.0177012 0.0137636 0.00819009 0.0519223 -0.00471721 0.0769901 0.0154117 -0.00155016 0.0750864 0.0334421 -0.00490545 -0.0117882 -0.00319282 0.0112217 0.00560601 -0.00606034 0.0169751 -0.00068763 0.0203565 0.0214185 0.0465427 -0.00643931 -0.00596971 0.0299394 0.0148519 0.0221021 0.00229128 0.00574489 0.0150059 0.00395148 -0.00688315 0.0220896 0.0508056 -0.00785511 0.00442087 0.0288251 0.0188201 0.0122859 0.0164592 0.00383166 0.0102537 -0.00873719 -0.0105575 0.00229913 0.0372893 -0.000972698 -0.00127687 0.00935581 0.0027505 0.0688888 0.00414909 0.00782236 0.0132167 0.00653146 -0.000831574 -0.00128428 0.000744795 -0.00387789 0.00122496 0.0236955 -0.00705888 0.0288547 0.001348 -0.00978497 0.00712286 0.013029 0.012172 -9.1619e-05 -0.0128074 0.0229938 0.0147987 0.00622628 0.0129194 0.00751112 0.0281317 0.0158145 0.00613289 0.00474245 0.00282877 0.00118933 0.00353026 0.00871953 -0.00201528 -0.00184608 0.0233321 -0.00135901 0.00818309 0.0040296 0.0190776 0.00264122 0.0326853 0.0138675 0.00517706 -0.00331612 0.00206907 -0.00979513 0.0296926 0.00318407 0.000394397 0.0066343 -0.00128257 -0.00659254 0.00992029 0.00355802 0.0100148 -0.00168885 0.0139681 -0.000994563 -0.0178133 0.00666057 0.00284211 0.0369448 -0.0120261 -0.00647005 0.00986603 -0.059865 0.000277402 0.00662787 -0.00814051 0.0249884 0.0143608 0.0103341 -0.292868 -0.00134419 -0.00163852 -0.00214876 -0.00516318 0.0253659 0.0130301 -0.0182234 0.0111886 0.010049 0.00896849 -0.00516045 0.013947 -0.00593372 -0.00259626 -0.00163005 0.00510086 -0.00400785 -0.00868909 0.0034763 0.0148275 -0.0127566 0.00287843 0.0161376 -0.0336607 0.00671796 -0.00700099 0.00241348 0.0140902 -0.00816748 -0.022239 0.0100911 -0.00930455 0.0107744 0.048854 0.00147232 0.00474468 -0.0267662 -0.00289925 0.0290927 0.00504858 0.0104248 0.0117068 0.00135136 0.00151487 0.00746904 -0.0167194 -0.00996562 0.000479919 0.011193 -0.00717765 0.00864678 0.00597089 -0.00632062 -0.00465371 0.00379419 -0.00590511 0.0073571 0.0229913 -0.0107677 0.0053031 -0.0140734 0.0140033 -0.0114125 -0.000916441 0.00235461 0.00425749 0.00177717 0.00869671 -0.000334394 -0.00253245 -0.00168968 0.00434837 0.00127294 0.00645217 -0.00719539 0.0163685 9.36237e-05 -0.0187527 0.000281082 -0.0152738 0.0248354 0.000552504 0.00280599 0.00734312 -0.0257109 -0.0385473 0.000983119 -0.0168756 0.0273478 0.00464468 0.0348078 0.0172222 -0.0240202 0.00367809 0.00697157 0.000330973 -0.0106667 -0.0153488 0.00494081 -0.0170431 0.00432975 -0.00750142 0.00341363 0.0413889 0.0157009 0.0120045 -0.0229858 0.0045774 0.00410442 0.0650508 -0.00834719 0.00997103 0.0373086 -0.00143647 0.0168753 0.00193747 -0.0115096 -0.000720019 0.0121235 -0.0764 0.00600931 -0.0019014 -0.00702135 -0.000198849 0.0295185 0.00256724 0.0077258 0.0111938 -0.00234792 0.0161103 -0.008014 0.00790528 0.00377759 -0.0233154 0.00397232 -0.040922 0.0177123 0.00745647 0.0147571 0.0135914 -0.0195303 -0.00379106 0.0154889 0.017941 0.0127116 0.000414872 0.00415832 -0.021233 0.0491385 -0.00259102 -0.0202286 0.0131691 0.00308348 0.0797309 -0.0358328 -0.00924137 0.0150429 -0.00982533 0.000831877 0.00153079 0.0070978 0.00456452 0.0099258 -0.00783166 0.00702614 0.0228583 -0.0107476 0.002965 0.00602361 -0.0057375 -0.00365171 0.00772374 0.0107167 -0.00229086 0.00120543 7.63498e-05 -0.010055 0.0186949 0.0172526 -0.0173356 0.000616573 -0.0684097 -0.0178165 -0.0284644 -0.0137497 -0.011358 -0.0121597 0.00551363 -0.000831035 -0.00540727 -0.0200763 0.0012674 -0.023669 0.0192584 -0.0367579 -0.0330828 -0.0463523 -0.00172893 0.0181534 -0.000561014 -0.00859018 -0.0207774 -0.0142982 -0.00345809 -0.000216783 -0.0197176 -0.0225936 -0.0212223 -0.0220721 -0.0318593 -0.000238884 -0.0141148 -0.0428602 -0.0354418 -0.00920929 -0.0113572 -0.0405582 -0.00732049 -0.00542855 -0.0310378 -0.00877831 -0.000133357 -0.0587336 -0.0019016 -0.0379506 -0.399929 -0.0145115 -0.0384024 -0.0331088 -0.0221416 -0.0208768 0.0212968 -0.00915841 -0.0422939 -0.0179348 -0.015943 -0.0286409 0.00403122 -0.0427436 -0.0290403 -0.00628507 -0.00896049 -0.0290602 -0.0262772 -0.02005 -0.00680392 -0.0161872 -0.0413271 -0.0198699 -0.0329552 -0.00860148 -0.00218622 0.00814367 -0.0549752 -0.0119486 -0.0256754 -0.038078 -0.0194594 0.012332 0.00399685 -0.0458871 -0.0129734 -0.0217037 -0.0350759 0.0128591 -0.0214842 -0.0131617 -0.00879383 -0.0219516 0.0371657 -0.0196777 0.0164695 -0.0141889 -0.0164587 0.019946 -0.0164258 -0.00521254 -0.0225549 -0.0185671 0.005559 -0.0239577 -0.0263428 -0.0162947 -0.00848146 0.00983795 -0.0314093 -0.0362294 -0.023836 -0.0258423 -0.0065555 -0.000642939 -0.00553259 -0.010232 -0.0154649 0.00940536 -0.0161581 -0.00991714 -0.0361416 -0.0484607 -0.0358414 0.0233171 -0.0230171 -0.0283465 0.0216986 0.00701815 -0.0107591 -0.0084573 -0.022392 -0.0385787 -0.0245386 -0.0295186 -0.0213277 -0.0181966 0.0136328 0.0512912 -0.0275723 0.0218827 -0.0220431 -0.0108089 -0.0037815 -0.0109092 -0.0162264 -0.034587 -0.0209591 -0.100044 -0.0350235 -0.0100058 -0.024498 -0.0535571 0.0207787 -0.00971558 -0.0145056 -0.0134269 -0.0238118 -0.0229427 0.0289216 -0.0102256 -0.0137051 0.0211623 -0.0212951 -0.0302933 -0.00596966 -0.00932497 -0.00168873 -0.00738512 -0.00974519 -0.0209557 -0.013465 -0.0112559 -0.0591382 0.0259062 -0.0171938 -0.0105681 -0.0135472 -0.0113219 0.0306125 -0.03535 0.0101745 -0.0294961 -0.020457 -0.0199112 -0.0103857 0.0493121 -0.0149918 0.00296019 -0.0431637 -0.0137374 -0.012075 -0.0228276 -0.012576 -0.0297958 -0.0230604 -0.0114261 -0.0114293 0.055146 -0.028844 -0.11153 -0.0230521 -0.019152 0.0416902 -0.0288999 -0.00702694 -0.0137566 0.000856597 -0.007416 -0.00963364 -0.0179913 -0.0124716 0.0128286 -0.018365 0.00343553 -0.0176404 -0.0149757 -0.0271969 0.0501878 -0.0178327 -0.02 -0.0340378 -0.00921979 -0.0465086 -0.000112556 -0.0384561 -0.0312375 -0.013412 -0.0265115 -0.0162626 -0.0263316 0.00216023 0.00613986 -0.0125583 -0.00486508 -0.00688361 0.00262661 -0.0101719 0.0495004 0.0317685 -0.00696353 -0.00224836 0.0125133 0.00248928 -0.00157788 -0.00944986 -0.00982554 0.00919909 -0.0102962 -0.00932543 0.0210589 -0.000318683 -0.00311098 -0.000218648 0.0223099 -0.00589249 0.0118487 -0.00727917 -0.00318058 0.00955233 0.00471761 -0.000400163 0.0231181 -0.00907126 -0.00900108 -0.00815553 0.00634499 -0.00281096 0.00136088 -0.0154555 0.0127916 0.00507236 0.00373676 0.00653595 -0.0641599 0.00717323 0.0148715 -4.63857e-05 -0.00794512 0.00196385 0.00190496 -0.00197496 0.000229071 -0.019536 -0.00173957 -0.0151605 0.00746429 -0.000915678 -0.00253212 -0.00701699 -0.00545923 0.00263107 0.0154187 -0.023007 0.012472 -0.0224485 -0.00847592 -0.012104 0.0431727 -0.00159609 -0.0162442 -0.0355498 -0.0222439 -0.023531 -0.0214617 0.00977219 -0.00138237 0.0271804 0.0326795 -0.00176091 -0.00412143 -0.0105928 -0.011274 0.0162359 -0.000890496 -0.00680576 -0.0109415 -0.00310621 0.00422599 -0.00702851 0.0168058 -0.0145375 -0.00031104 -0.01455 -0.0127208 -0.00641745 -0.00815625 0.00570143 -0.0129456 -0.00403147 0.00283679 0.0037801 -0.00143185 -0.0279499 -0.0249249 -0.00241768 0.00506833 -0.0102991 0.00610831 -0.0110074 0.01296 0.0198273 -0.00532181 -0.0151832 -0.00560051 -0.00700882 -0.00170085 -0.0183203 0.0097965 -0.0165994 -0.025365 -0.0204858 0.019098 0.0342094 -0.009114 -0.00998279 0.0111552 -0.00267429 -0.023463 0.0233273 0.0122158 -0.00699355 -0.00196172 0.0177327 0.00459755 0.0323532 -0.0103411 0.00532989 -0.00716675 0.0321678 -0.00504532 -0.00371267 0.0135045 -0.00616691 0.00810705 -0.00273064 -0.014906 -0.0109928 0.023332 0.00534431 -0.00116563 -0.00887953 -0.0126671 -0.00579773 0.0211638 0.00172361 -0.00508342 0.0338676 -0.0164466 -0.00377328 -0.00107197 -0.0062259 -0.0179531 -0.00149701 -0.00269454 -0.00415315 -0.00322354 -0.00938642 -0.00471047 0.0241947 -0.0141339 0.000829183 -0.037762 0.0135968 0.0125406 0.00429258 0.00589426 -0.0102268 -0.00705126 -0.0136229 0.00724538 0.0150294 -0.0130578 -0.00678619 0.00432842 0.00529318 -1.11125e-05 0.0180574 0.0177072 -0.00504556 -0.0120234 -0.0244029 0.00282141 0.0179096 -0.00872666 -0.00767929 -0.0393282 0.00154218 0.0757028 -0.00272864 0.0142405 -0.038424 0.0396543 0.00706764 -0.00613369 -0.00959864 -0.00852063 -0.00916937 0.0249041 0.00624301 0.0057258 -0.0101921 -0.00117364 -0.0353177 -0.0140336 -0.0118368 -0.00768362 -0.00942994 -0.0128522 0.0187964 -0.0057998 0.00710367 0.0130814 -0.0024941 0.00961788 0.0318752 0.00293837 -0.0144504 -0.000357454 -0.0145243 0.00336934 -0.00767488 0.020846 -0.00819639 -0.00153844 -0.00189375 0.0204981 -0.003092 0.00627686 -0.0228794 -0.00413098 0.015407 0.00319317 -0.00219515 0.00267547 -0.0244347 0.00204689 0.0203947 0.0133816 0.00489221 -0.000741258 0.00403018 0.00113959 0.0149185 -0.0230985 -0.00116355 0.0211782 0.00189899 -0.00693221 0.000859382 -0.00814888 -0.000543809 0.00917363 0.0266752 0.00445306 0.0297501 0.0115962 0.0115635 -0.182337 -0.0278294 -0.00739111 0.00284531 0.00284438 0.00020902 -0.00184928 0.00341738 0.00306585 0.00250402 0.00770963 0.0100291 0.00455197 0.00358066 -0.0248703 0.00626804 -0.000450149 -0.00372004 -0.00577305 -0.0145313 0.0592813 -0.0227228 0.00325735 0.009575 -0.0630952 -0.0568986 -0.00975423 -0.0101947 -0.00186842 -0.0140116 -0.0166921 -0.00356524 0.00249413 -0.0195936 0.0587663 0.00368852 0.00248123 -0.0130052 -0.00187893 0.0298967 0.0121289 -0.00369427 0.00729682 0.0105051 0.0167294 0.0102118 -0.00420137 0.00249037 -0.00531423 0.0295144 -0.0168133 -0.00192648 0.00435366 0.00453925 -0.0175841 -0.00897383 -0.0074003 0.0173952 0.005937 0.0140387 -0.00836836 -0.00928241 0.00632455 0.0195456 0.0135389 -0.00143738 -0.000484341 0.00965814 -4.70407e-05 -2.80667e-08 0.0300483 -0.00153606 -0.0119025 0.00647537 0.0214976 0.0057401 0.0152844 0.0260225 -0.00183525 -0.0097046 0.0106254 0.0145042 0.00110486 0.00654702 0.0241854 -0.0366309 -0.026897 0.00695994 -0.0013192 0.0293672 -0.0018987 0.000137472 -0.00271344 -0.021072 0.00572749 -0.00292337 -0.00463135 -0.0130616 0.00860674 -0.00577149 0.0121568 -0.00423739 -0.0139727 0.00156196 0.0229233 0.0111018 0.00686029 -0.00482787 0.0278772 0.0139841 0.0495535 -0.015029 -0.00325211 0.0504999 0.00522294 -0.00366579 0.0177033 -0.00899306 -0.0102787 0.00247568 -0.0309293 0.0265805 0.00709993 -0.00690017 0.00858516 0.0362672 -0.00101923 -8.30266e-05 0.0266372 0.0201196 0.00525082 0.000649643 0.00669133 0.000787722 0.0260579 -0.00438691 -0.0136326 0.0350765 0.00682874 -0.00903859 0.011947 -0.0413446 -0.00403742 0.0112671 0.015962 0.027861 0.0239458 -0.0110996 -0.00206866 0.0439136 -0.00246934 -0.0249908 0.00991191 -0.00891641 0.0740101 -0.00434354 0.00898426 0.0152002 0.00109842 0.0139478 -0.0234079 -0.00101975 -0.0040478 -0.00414643 -0.0119594 0.0174341 0.000860545 0.00117418 -0.0263129 0.00707877 -0.00286152 0.00656101 0.0114753 0.0219467 0.0073304 0.0210339 0.0145357 -0.00412942 0.0155992 0.0271577 -0.00383658 -0.00198765 -0.0015307 0.0166401 -0.00327715 0.23593 0.00988261 0.0497838 0.0193028 0.0033968 0.417266 0.200708 0.0118141 0.0172318 -0.00641577 -0.00746108 0.243917 0.0147665 -0.000550034 -0.0188808 -0.0258682 0.025766 0.0438331 -0.000776735 0.0157107 0.00466154 -0.010532 0.00519776 0.0123164 0.0131418 5.19035e-05 0.0330079 0.023245 0.135068 0.00161631 -0.0043884 0.0110703 0.0359559 0.109895 0.0186253 0.00359719 0.00585107 0.00918009 -0.09864 0.0156795 0.00548245 0.0277381 0.0109269 0.0194084 0.0464319 0.048834 0.00668591 0.0067198 0.00321798 -0.00169531 0.0134236 0.00466987 0.0110475 0.00589642 0.0127007 -0.00528795 0.043276 -0.00990029 -0.00025396 0.0141 0.0010581 0.00521666 -0.0147457 -0.00288107 0.0154466 0.0434314 0.00376495 0.266726 0.0149083 0.0218852 0.00153765 0.0402171 0.0175676 0.0205619 0.00591067 -0.0100023 -0.00292365 -0.0385083 0.000998688 -0.0149948 0.000215769 0.0282247 0.00167417 0.0126412 0.0205224 -0.000170499 0.000189885 0.0333322 0.0496642 0.00838751 0.0197187 0.024557 -0.00671606 0.00588365 -0.00570646 0.0672219 -0.000130538 0.129572 0.00322729 -0.016357 -0.00880082 0.00579317 0.00604426 0.0189449 -0.000673116 0.0339068 0.018844 0.00424683 0.0057754 -0.000538059 0.000131682 -0.00259742 0.020549 0.122013 -0.000889687 0.0350461 0.00113693 0.0346133 0.00620071 0.00401084 0.00739144 0.00161901 0.0327523 -0.00143241 0.0246945 0.0940065 0.0157269 0.0264456 -0.00783461 0.0402972 0.00719299 0.0977931 0.0170688 0.0250668 0.227855 -0.0133871 0.00402979 -0.0256849 0.231358 -0.0206945 0.00988397 -0.00506776 0.0220179 0.0301874 0.0020089 0.0196779 0.0323041 0.165372 0.200877 0.0250215 0.0215893 0.0374172 0.0264945 -0.0016367 -0.00641291 -0.0121656 -0.00668227 0.0086531 0.0202197 0.0277344 0.0100599 0.00444714 0.0101144 0.028814 0.0236445 -0.00188355 -0.0112118 0.014908 0.0340437 0.00584976 0.0293053 0.00361704 0.00242317 -0.00408678 0.0147056 0.0475794 -0.00703201 0.0282829 0.0454775 0.014972 -0.00383167 0.0159111 0.0335962 0.02955 0.0316567 0.0110648 -0.00938666 0.0699643 -0.00272138 0.00216068 0.240681 0.010985 0.0664362 -0.000671736 0.0108616 0.0682066 0.0779162 -0.00154768 0.00463423 0.0278622 0.0131861 0.013824 0.0316216 0.0263712 0.0268918 0.0143642 -0.00474962 0.00727249 0.00367614 0.00384515 0.0248427 0.0376634 0.013338 0.018032 -0.0065862 0.0209481 0.00333436 -0.0117346 0.0161206 0.0120162 -0.0112018 0.00659536 0.00997389 -0.000623539 -0.0135944 0.0127368 -0.0215444 0.0296822 0.0364523 -0.00554392 -0.0201661 -0.0049196 -0.00493717 0.000787661 0.0427451 0.00224407 -0.0105547 0.000378281 -0.0149029 -0.00362198 0.00934939 -0.00661639 -0.00869036 -0.0147964 -0.000958334 0.00566247 -0.00287843 0.0240592 -0.00985008 0.0249342 -0.00654663 0.0350834 -0.0155648 -0.00954326 -0.00116105 0.00057889 0.00530797 0.0354004 -0.00948055 0.0107543 -0.173822 -0.0128997 0.00283477 -0.00549046 -0.0140296 0.0216126 0.0348974 -0.00338927 -0.023156 0.0244454 0.000531726 0.00781693 0.00570375 -0.0200513 -0.00344754 -0.0327669 -0.0167743 -0.0101994 0.0101941 -0.0074653 0.00571748 -0.0157708 0.0196714 0.00843659 -0.0357405 0.0327801 -0.00440849 0.0119418 0.0121605 -0.00636268 -0.0216015 -0.00101372 -0.0036426 -0.0110091 0.0167129 -0.00143147 -0.0157063 -0.0179274 -0.00634332 0.0457867 0.0144823 0.00373361 0.029032 0.0212146 0.0176265 -0.000627497 0.010385 0.00251121 -0.00551136 0.00196662 -0.00403703 0.000138372 -0.00327951 -0.00895931 -0.00385816 0.00088232 -0.0146903 0.00537404 0.0241743 0.00892812 0.00731832 -0.0211192 -0.0248686 0.000196364 -0.0248088 -0.0118456 -0.0108218 -0.0216882 7.25879e-05 -0.0187672 -0.0185156 -0.0300488 0.0111214 0.0229975 -0.0358347 0.0316225 0.0309468 0.00544188 0.00745221 0.0410456 -0.0151329 0.00478254 -0.0272048 -0.0148114 0.0201016 0.000837057 -0.0241428 -0.0155187 -0.00859515 0.0519698 0.00712425 0.0410583 0.00180899 0.0425862 -0.00223183 0.015192 -0.00733661 0.00617941 0.0138308 0.0274809 0.0253108 0.00910175 -0.0124158 -0.0105826 0.0318324 0.00297891 -0.00469409 -0.0132107 -0.00178976 0.00215691 0.0416871 -0.0186479 -0.00566137 0.0208525 -0.0194945 -0.00433017 -0.00885547 0.00647606 -0.0114817 0.0118557 0.00289772 0.0111575 -0.00543953 0.00810557 0.0224583 0.0862231 -0.0137857 -0.00520682 -0.00216513 -0.00630911 0.0151161 0.00556127 -0.00476557 -0.015102 -0.0530401 -0.0177136 0.0101213 0.0345129 0.00242495 -0.00302867 0.0126943 -0.010234 0.0133873 0.00458966 0.0036363 0.0200799 -0.0105532 -0.0118395 -0.00857037 0.0523078 -0.00180578 0.00797024 -0.00392247 -0.00556392 0.0431191 -0.0113697 -0.0104018 -0.0227746 0.0080516 0.0135242 0.0210284 -0.00897962 -0.0102481 0.0226907 -0.0172783 -0.00090005 0.0236028 -0.0261936 -0.00990636 0.00543731 -0.0114049 -0.0135722 -0.034822 -0.0113229 -0.0254937 0.000563366 -0.00887475 -0.0181368 0.000676118 0.0266591 0.00300777 0.000390885 0.0147244 0.00339672 0.0133684 -0.0101516 0.00207507 -0.0114143 0.0241083 0.0158989 -0.000229174 -0.005091 -0.0298949 -0.00604954 -0.00865904 0.0122214 0.0337248 -0.0111793 0.00537376 0.00231691 0.00602995 0.00693257 0.00347458 0.0038537 -0.00384321 -0.00250203 -0.00825657 0.00117267 0.0229257 0.00923436 0.0259907 -0.00443389 -0.00706819 0.00812736 0.00641427 -0.0145071 0.0145429 0.000499229 0.0163633 0.0034337 0.0111863 -0.468423 -0.00777034 -0.0139445 0.00959335 -0.0105683 -0.00488912 0.0010113 -0.00163771 -0.00328111 -0.00654947 0.00299853 -0.0229037 -0.00245965 -0.0151602 0.00400511 0.00777305 -0.00215176 -0.0183688 0.00729166 -0.002538 0.0741922 -0.0275072 -0.00234095 -0.00886342 0.0169559 -0.00178142 -0.0111695 0.0130944 -0.0390943 0.00343759 -0.00624157 0.00312465 -0.009993 0.014694 0.0879708 0.0082493 -0.020091 0.00137248 0.0435514 0.045573 0.0101307 0.0105692 0.023736 0.00888836 -0.000581633 0.0147927 -0.000141662 0.015661 0.00220917 -0.0073616 0.0310107 0.00683527 -0.00564109 -0.0266576 -0.0067417 -0.00589212 -0.00316799 0.00317433 0.0262682 0.00919574 -0.00371079 -0.00714063 0.00174643 -0.027359 -0.024976 0.0256924 0.00910759 0.000918818 -0.000583455 -0.00228828 0.00380966 -0.0246475 0.00725469 -0.0144424 -0.00252695 -0.0110287 0.00809618 0.00776729 -0.00722706 0.0389933 0.031009 0.0509365 -0.0221369 -0.00619645 -0.0133016 0.00356836 0.0373641 0.00484378 0.0187732 0.0264597 0.00144093 0.0250567 0.00495522 -0.00404354 -0.0167453 0.010176 0.00697522 0.00641954 -0.00621592 0.00130219 0.00477287 -0.0121476 0.0362798 -0.00440372 0.0334763 -0.0102536 0.00431073 -0.0219007 0.0260304 0.00959121 0.0415038 -0.00138437 -0.0173842 0.047796 -0.00114448 0.00511814 0.00185602 -0.00167015 0.0262698 -0.000458612 0.00192067 0.0171657 0.000753749 -0.00427651 0.0266695 0.0467807 0.00367442 0.00736793 0.0198617 0.00438146 0.0101371 -0.0024593 0.00909383 -0.0219262 0.0128228 0.0264172 -0.000382991 0.0426837 0.00362696 0.0255896 0.00829514 0.0190867 -0.0240586 -0.0144989 0.0117327 0.0135815 -0.0145057 0.0194957 -0.00523383 0.0394718 -0.00955051 -0.0211834 0.00369207 0.0099565 0.0290977 -0.0046353 0.00798487 0.0252035 0.00524924 -0.00954314 -0.0181056 0.000417741 -0.0126956 -0.0296461 0.0142781 -0.00279162 0.0306071 0.00124993 0.0270385 0.00146405 0.0200535 0.00164223 0.00230611 0.00899338 0.00657976 -0.00036888 -0.015566 -0.0166397 0.0110714 0.00454789 0.00796698 0.000515849 0.0198613 0.00979234 0.00530197 -0.0106108 0.016308 0.014361 0.0155964 0.013358 0.0174799 -0.00562073 0.0207378 0.00284472 -0.00689567 0.00969943 -0.00359502 0.0123964 0.00626203 0.012152 0.0134981 -0.0107308 0.0150467 0.0177789 0.027173 0.0181736 0.000716624 0.0555947 0.00783643 -0.00517152 -0.00329205 -0.000111684 0.0309958 0.00166011 -0.00172989 -0.0127839 0.00657035 0.0268296 0.0239567 0.0231434 -0.386231 0.0101184 -0.000666424 0.00186945 -0.00359169 -0.00157338 -0.0107507 0.00515989 0.0191917 -0.0124283 0.0215054 0.0124984 0.00426635 -0.00180447 0.0171562 0.0118618 0.00825502 0.0221565 -0.00423232 -0.00996513 0.0369964 0.0146532 -0.00084029 0.0442175 -0.0245604 -0.00748581 -0.00345714 0.0153196 0.0253935 0.0173189 0.0176985 -0.00988641 -0.000771581 0.023371 0.0516204 0.0138387 0.00469507 0.0238892 0.00547102 0.0657485 0.0272029 -0.00625323 0.00556303 -0.00261189 0.0540814 0.00796955 0.0411368 0.00739025 0.028744 -0.00307848 0.0353924 -0.000580746 0.00578295 -0.00661343 0.0200672 0.00212741 0.0129421 -0.014947 0.0217609 0.00854886 0.027484 -0.00584486 0.00257609 0.0165755 -0.0093106 0.0153647 3.81023e-05 0.0220017 0.00594393 0.00402161 -0.000731433 0.00633319 -0.014962 -0.0207087 -0.00878953 0.0202962 0.0270043 0.00917408 0.0101669 0.0245712 0.00022313 -0.00668901 -0.00397961 0.00435501 0.0179779 -0.00100815 0.00726806 0.0290814 -0.00227119 0.0348487 0.00929088 0.0393465 0.0149251 -0.012659 -0.0120164 0.0303505 0.00360076 -0.00458269 -0.014274 0.0047245 0.00611644 0.0345108 0.00640211 0.0122556 0.0433279 0.0421206 0.00589649 -0.0114289 0.0449337 0.0093335 0.0515004 0.00641431 0.00643761 0.064063 -0.00225935 0.0204309 -0.0017707 0.0199469 0.010235 -0.00470215 0.00768837 0.0228639 -0.000468279 0.026626 0.000758897 0.0791631 0.0180179 -0.00260923 0.0355862 -0.00193255 0.00737805 -0.00774121 0.00488881 -0.000480153 -0.0018138 -0.0127402 0.00482642 0.0464123 0.0181757 0.0212912 0.0138423 0.0198826 0.0132726 0.026739 0.0269473 0.0132497 -0.00940755 -0.0141867 0.0442733 0.0761549 -0.00317742 -0.00118058 0.00105116 0.0193829 0.0231382 0.00694001 -0.00230175 0.0044648 0.0145404 0.00191651 -0.00077414 0.00100048 0.00337257 0.0176169 0.0453275 -0.0110135 0.0270886 0.022723 0.0209912 0.00933761 -0.0069664 0.0098792 0.00350806 0.0129451 -0.00374596 0.045288 0.00151395 -0.0026509 0.00103471 0.00463664 -0.00757753 -0.00556714 -0.00345331 0.0418671 0.0151568 0.00434533 0.0300065 0.0146032 0.0356765 -0.00266769 -0.0094904 -0.00900296 0.00047983 0.0190965 0.0157908 -0.0049235 -0.000777284 -0.00136164 0.00584182 -0.00427897 0.0029963 0.00418402 0.00952518 -0.00309937 0.004703 -0.0127801 0.0225995 0.0107522 0.0250247 -0.0255065 0.00119548 -0.00158772 -0.0143973 -0.00490474 0.0110337 0.0154284 0.0307972 -0.00609732 0.00185708 -0.184366 -0.00587329 -0.010997 -0.00693285 -0.000401171 0.021384 0.0106538 0.0108669 -0.000552298 -0.00013786 0.00670436 -0.01228 0.00168816 0.0181622 0.00459141 -0.00328522 0.00575188 -0.0122622 0.000669939 -0.00969076 0.0116456 -0.00611234 0.00826665 -0.00199095 0.0441032 -0.0179518 -0.00310751 0.0227634 -0.0140518 0.00558321 0.00856666 0.00431227 -0.00369934 0.0324953 0.0334781 0.0127495 -0.00401175 -0.00173712 -0.00427849 0.0400075 0.00787992 -0.0141043 -0.00100862 0.0166918 0.0285878 -0.00088281 0.0317109 -0.0023727 0.00663882 0.00276844 0.00688414 -9.14138e-05 -0.000412922 0.00236513 -0.00967136 -0.00980834 0.00375677 0.0177507 0.0313594 -0.0390637 -0.00620544 0.0025211 0.0224049 0.00482704 -0.00341459 -0.0137152 0.0179623 0.0149392 0.0041494 -0.00109026 -0.0106894 -0.000710334 0.00483129 -0.00045744 -0.00393304 -0.00322139 -0.006313 0.0114623 0.00132149 0.00803937 0.0131333 0.0106086 -0.00527631 -0.0110934 0.00581539 0.00154248 0.0106163 0.00938183 0.037269 0.0256352 0.00779743 0.0247759 0.00418581 0.0169834 0.00114404 0.0116322 0.0103409 -0.00975683 0.00300879 0.0158286 0.0154584 -0.00751604 -0.00447783 -0.0121639 0.0319938 0.0097931 5.35409e-06 -0.00956466 0.0455574 0.00139247 0.0309666 0.00567954 0.00318623 0.0180238 -0.00345282 -0.00861162 0.00563354 0.00403214 -0.0126868 0.0097228 0.00150006 -0.0069334 -0.00111327 0.00486953 0.0037884 0.0399516 -0.00319864 -0.00864686 0.0129622 0.011002 0.0206634 -0.00299348 0.00494849 0.00380255 0.00604649 -0.00419665 0.0197785 0.0471005 -0.0188075 -0.00222411 -0.00149152 -0.000876664 0.00658614 -0.00817503 0.00906892 -0.00487233 -0.0192295 -0.00674649 0.017615 0.0764635 0.00505061 -0.00708516 0.0132103 -0.000641003 0.0560786 0.00381063 0.00553978 -0.00970999 0.0130765 -0.000743834 -0.00166485 0.00874917 0.00338713 0.00378415 -0.0238954 0.00342825 -0.00793595 0.00604706 0.0136941 0.00985068 0.0127657 -0.0168535 -0.00854468 0.00481399 -0.00194068 0.0107517 0.0071811 0.00221282 0.00260865 -0.000913671 0.0168368 -0.0144228 0.0120422 0.0050688 0.00208889 -0.00477721 0.0280096 0.0041181 0.00189229 -0.000361919 -0.00646612 -0.00130639 0.0228917 -0.000578959 0.00776979 -0.0149931 -0.00944194 0.0360857 -0.00983885 0.000106117 -0.00351396 0.00136928 -0.00921132 0.00284769 0.00205681 -0.000921222 0.0398463 0.0271614 0.00782377 0.00371726 0.0112028 0.0122818 0.0267383 0.0200706 0.0129082 0.0417145 0.00488009 0.00967436 -0.161738 0.00657298 0.0101536 0.0177063 0.000855416 0.00263856 0.00742853 -0.000116922 0.0185551 0.00790554 -0.00329521 0.00202595 0.0104287 0.0107836 0.0121203 0.00954472 0.00725586 0.00938786 0.0137665 -0.00334757 0.00297544 0.000677391 0.000706345 0.0118532 -0.0305319 -0.000708252 -0.00056411 -0.00646423 0.00840214 0.0147878 -0.0294871 0.0192993 -0.0145602 -0.00626045 0.0574685 -0.00546908 0.00153515 -0.00674887 -0.00102273 0.0322099 -0.00362846 -0.00550749 0.0210765 0.00887943 -0.0137699 0.00527774 0.0262663 -0.0117089 0.00697892 0.0239616 0.00589085 0.0198625 -0.00760785 0.0123156 0.0123994 0.0134519 0.000405917 0.0239477 0.010658 0.0166576 -0.00124475 -0.00772135 -0.00106605 0.0177965 -0.00409181 -0.00576438 -0.00233394 0.00201676 0.0244888 0.00238598 -0.000556046 0.00551218 0.00416276 -0.00479959 0.00143031 0.0419108 0.0206189 0.0249728 0.0276584 0.0549054 -0.00167239 0.0111007 0.0124055 0.00332333 0.0228424 -0.00334774 -0.01482 0.00444011 0.00176867 -0.0389029 0.000920191 0.0215843 0.0118146 -0.000471212 0.0150606 -0.0276372 -0.00682845 0.0100687 0.0127453 0.0129599 -0.00897281 0.00592461 -0.00371644 0.00783882 0.000461395 0.00353151 0.000388277 -0.00255534 0.0563468 0.0134271 0.0618238 0.0145021 0.0148311 0.0359288 0.0098091 0.000487145 -0.031841 -0.00700979 -0.00169593 0.00542836 -0.00463064 0.0197477 0.0119787 0.000945329 0.0158573 0.0493434 -0.0027339 0.00479016 -0.00433373 0.0180539 0.0201174 0.0195222 0.0289467 -0.000183195 -0.00507237 -0.000848156 0.0170356 0.0394 -0.00350584 0.00586769 0.00125559 0.0035619 0.0193641 0.0149849 0.0310667 0.00640738 -0.000756272 0.000931944 -0.00313741 0.0645998 -0.000469554 0.00620311 0.0270568 0.00666408 0.080802 -0.00173736 0.00168272 0.034865 0.0142716 0.0101818 0.00735338 0.0226785 0.00319159 -0.000183657 -0.00220563 0.00681312 0.0336675 0.0142258 -0.00388958 0.00678487 0.00755342 0.0196993 0.00454474 0.0149184 0.0257679 -0.008644 0.0313148 0.00163457 -0.000245073 0.038759 0.00472896 -0.0106225 0.00262852 0.00887355 0.0446411 0.0216162 0.0166153 -0.00892532 0.00895342 -0.0104519 -0.0115324 0.00394099 -0.0218771 -0.00184896 0.0169734 -0.0146801 -0.0178987 -0.0265941 -0.0141022 -0.024918 -0.0203743 0.00309676 -0.00309765 -0.00590483 -0.00446893 0.0137144 -0.00828296 -0.0196211 -0.0164937 0.00250365 -0.000938318 -0.0159204 -0.00864504 0.0136924 0.0342585 -0.00917192 0.00480017 -0.0505663 -0.0157961 0.00317937 0.0016748 -0.0148756 0.00297069 -0.011643 0.00847621 -0.0245526 -0.00826667 0.00382067 0.0113332 0.0009491 -0.00797768 -0.0276326 -0.0199319 -0.0102833 -0.0101872 -0.00513665 -0.0169206 -0.0196928 0.00192062 0.0160471 0.00324833 -0.00978334 -0.00598711 0.00763555 0.0249859 -0.0315681 -0.0495685 0.0231245 0.01001 -0.0217638 0.0142194 0.0400406 -0.0157318 -0.0123076 -0.00425097 -0.00990857 -0.0173391 0.0031493 -0.0107447 -0.0124734 -0.00350201 0.0258138 -0.010418 -0.00151185 -0.0189478 -0.00750511 0.0157032 -0.0140674 -0.00699981 -0.0131904 -0.0121807 0.0188931 -0.0229425 -0.00272177 -0.00875165 0.00742294 -0.0262437 -0.0174777 -0.0142554 -0.0148399 -0.015674 -0.0191011 -0.00237806 -0.0116503 -0.00475799 -0.00558278 0.00381664 0.00560929 -0.00691773 0.000146079 -0.00803251 -0.0248904 -0.00862142 -0.00895702 0.010184 -0.0292515 0.0366133 -0.0038568 0.00450034 -0.0140211 -0.00323849 0.0161961 -0.0924509 0.00687893 -0.00505207 -0.0195597 0.0218381 0.0141237 0.00278794 -0.00300068 -0.0217311 0.0106611 -0.00783765 -0.00951353 -0.0128589 0.0109268 0.0110814 -0.0122585 -0.0210013 -0.0187205 -0.0151803 0.0195222 -0.0329342 -0.0162067 -0.00325808 0.0234351 0.0142376 0.0485377 0.000465116 -0.0145146 0.036172 -0.0149478 -0.0155606 0.0059438 -0.0103949 -0.0158107 -0.00885547 -0.000194986 -0.00163515 -0.00532161 -0.0104494 -0.00299426 0.0432447 -0.0212471 -0.0183116 0.016941 0.0163133 -0.0169909 0.0132173 -0.00856661 -0.144821 -0.00364621 -0.00879171 -0.0138506 0.0457191 0.000429941 -0.0125397 -0.00992555 0.0034032 -0.00832978 -0.00891731 0.00544877 -0.000214566 0.00373491 -0.0151515 -0.0019141 0.0371585 -0.0202944 -0.00758406 -0.0312204 -0.0185681 0.0296791 -0.00843025 -0.0147604 -0.00579619 -0.0100929 -0.0105915 -0.0234165 -0.0227172 -0.00734998 -0.00715578 -0.00229162 -0.00889511 -0.0294344 -0.0132707 -0.000618151 -0.00349465 -0.00329416 -0.0173756 -0.00739999 -0.0197061 -0.0255202 0.0102426 -0.0211232 0.00292975 0.0169862 0.0110426 0.0157423 0.00566915 0.00617388 0.0170745 0.0183198 0.00177965 0.00288835 0.00364186 -0.00415165 0.0133645 -0.00412399 0.000911813 0.00277054 0.00398509 -0.00014066 0.0132543 0.0102367 -0.000440903 -0.000807746 -0.00203952 0.00584137 -0.0113747 0.00241019 -0.0226218 0.0142639 0.0276434 0.0115494 -0.00390269 -0.00598918 0.0177884 0.0176395 0.00873736 -0.00747756 -0.0070814 -0.00671076 0.0103692 -0.122038 -0.00343794 0.0112839 0.0014345 -0.000103335 0.0208796 0.00490738 0.0293042 -0.00448659 -0.0032975 0.00213126 0.00273207 -0.00183873 0.00923015 0.000372982 0.000897696 0.00102173 0.00288428 0.00245696 0.00731048 0.00288843 -0.00219771 0.00155033 0.00487481 0.056463 -0.00788709 -0.0227707 -0.00260773 0.0134262 0.00424999 0.00520284 0.00332964 -0.00121992 0.0213519 0.0352007 0.00666687 -0.00961734 -0.0033279 -0.0114795 0.0216609 -0.00725848 -0.00446971 0.0173714 -5.73893e-06 0.0152523 -0.000134996 0.0160977 -0.00319726 -0.00273661 0.017794 0.00489929 -0.00763365 -0.00223931 0.017934 -0.000396166 0.00351988 0.00290619 -0.00846796 0.0206112 0.0137978 0.009959 -0.00578328 -0.00416883 0.00512467 -0.00420144 -0.00423206 0.00313988 0.00209101 0.00470905 -0.0119838 -0.00914773 -0.0144984 0.0200629 -0.00462311 -0.00615688 0.00777288 0.00775994 0.0294174 0.0257799 0.036204 -0.00765367 0.00868119 -0.00411882 -0.00643245 0.00791352 0.00209143 0.00807171 0.00939358 0.0117081 0.037275 0.0162719 0.0233635 0.00771139 -0.0093724 0.00918993 0.0214742 -0.0215338 -5.85434e-08 0.00540951 0.00832645 0.011027 -0.0036954 -0.00723831 0.00453821 0.0381598 0.00962468 -0.00475298 -0.0108522 -0.00487882 0.00404637 0.0731469 0.00734783 0.00710304 0.026777 0.00564678 0.00901171 -0.00655995 -0.0025074 -0.0020483 0.00290668 0.0177594 0.00429913 0.0284285 0.000247584 0.00377241 -0.0154455 -0.00212077 -0.00358951 -0.0186349 0.0224105 0.0115185 0.000134805 -0.0059633 -0.0105175 -0.00150393 -0.0133798 -0.0183334 0.0393427 -0.00898061 0.00712014 0.00985197 0.0190803 -0.000402804 0.0165065 0.00935444 -0.0131681 -0.000144578 -0.00152829 0.0162438 0.0436774 1.62743e-07 -0.000264129 0.00348094 0.00148662 0.0573989 0.000370593 -0.0119496 0.00953834 -0.000295348 -0.00308558 -0.0162921 0.00226044 -0.00766215 0.0109431 0.000311486 -0.00381547 -0.00113834 -0.0232863 0.00597275 -0.000726228 0.00258035 0.00291701 -0.0237939 -0.000238678 -0.0184903 0.00708766 -0.00368795 -0.00699252 0.00268388 0.00833761 -0.00981144 0.0220295 0.013824 -0.0146955 0.00137853 -0.00408209 -0.0148468 0.00500605 -0.00194222 0.000247794 0.000440161 -0.0197113 -0.0101298 0.00453083 -0.00104616 -0.00076628 -0.00398117 0.00136243 -0.00582285 -0.0175153 -0.00268397 -0.00830612 0.00917807 0.00694455 0.0145801 -0.0152579 0.010647 -0.0100651 -0.000905556 -0.0136156 -0.00295529 -0.0117943 0.0212323 -0.0195255 0.0134876 -0.042273 -0.00410833 -0.00989899 0.000964448 0.00809743 0.00642036 -0.00228704 0.0144597 -0.0127443 -0.00194768 0.00225894 -0.00361662 -0.00527909 -0.0106478 0.00551431 -0.0140696 -0.00323547 -0.00682925 0.0182912 -0.00565922 0.0175448 -0.00682226 1.80168e-05 0.00150758 0.0453947 0.00540867 -0.00631767 0.0070371 -0.0075649 -0.0128925 -0.0126548 -0.00387233 -0.0117794 0.0237815 0.040439 -0.0027973 -0.0154867 -0.00282837 -0.00226171 0.0173918 0.0119807 -0.0160543 0.017517 0.00920134 0.00821412 -0.0052976 0.0106314 -0.00390887 -0.0156413 -0.00424449 -0.00741132 -0.0143828 -0.00411664 -0.0117757 -0.00671723 -0.00493405 0.00340718 0.00686175 0.00451217 -0.00461648 -0.00885794 0.00553125 -0.00364563 -0.0062995 -0.0111598 -0.01698 -0.000220482 -8.31466e-06 0.0114796 -0.0238346 -0.0121451 -0.00399816 0.0207025 -0.00214946 -0.00862841 -0.0121289 0.0179987 0.0157601 0.0100275 0.00849455 -0.0049682 -0.00356524 0.0144463 -0.0075573 -0.00588247 0.00451223 -0.025894 -0.00047976 -0.030462 0.0341611 -0.00183843 0.024472 0.00303483 -0.00250734 -0.00634391 0.0409373 -0.0125689 0.00388242 0.00171485 -0.0105148 0.00804549 -0.00875336 0.00997464 0.0160619 0.0383502 0.00170836 0.0212068 0.00581443 0.0372012 0.00571118 0.0744364 0.0194761 0.00499105 0.0449456 0.0109479 0.0100823 -0.00180064 0.0129914 -0.0110379 -0.00200576 0.00633475 0.0193437 -0.0211565 -0.0153105 -0.0121584 0.0153134 -0.0134018 3.07031e-05 -0.00345279 0.0198773 0.00514055 0.00174131 0.007809 -0.0080946 -0.0157194 -0.00772915 0.00673379 0.020384 -0.0145568 0.0105433 -0.0157761 0.025393 -0.00134457 -0.0135834 0.0169701 -0.000446268 -0.0131369 -0.0179083 0.00922814 0.0161003 0.00255205 -0.00208503 -0.0314415 -0.00330292 0.0562325 0.00872463 5.73402e-08 -0.0028619 0.00998167 -0.00150471 -0.00661196 0.000660583 -0.00433284 -0.00174952 0.0196403 0.00478201 -0.0053838 -0.00748277 -0.00157498 -0.00424534 -0.0112375 0.0355863 -0.0237872 -0.02335 -0.0131005 0.00646377 0.00103009 -0.00917672 0.0111392 0.0105134 0.0175023 -0.015177 0.0145313 -0.00751222 -0.0302743 -0.0132002 -0.0180608 -0.00897896 0.00500332 -0.0038082 0.000425131 -0.0150465 -0.00789117 -0.00572316 -0.000570882 -0.000137828 0.00816967 -0.00886655 -0.0199923 -0.0339676 -0.00407729 -0.00151859 -0.0183995 0.0121481 0.0200884 -0.0109586 -0.00210043 0.00713296 -0.0121377 -0.00386673 -0.0163667 -0.0134279 -0.00415117 0.00536354 -0.172722 -0.00506875 0.000100253 0.00274363 -0.00307945 0.0190564 -0.0119529 0.0096953 -0.0176988 -0.00356925 0.0107744 0.0012438 -0.0120051 -0.00985308 -0.0131753 -0.00155376 -0.00211348 0.00165913 -0.00888973 -0.0113015 -0.00649831 -0.0146858 -0.00823771 0.00629983 0.0251237 -0.0148617 -0.00259679 0.00230444 0.00222764 -0.00607049 0.00391335 0.00228153 0.00891223 -0.00123556 -0.0111441 0.00783897 0.0176401 -0.00692547 -0.00683256 0.0313708 -0.00196421 -0.000581309 0.00596149 0.0300574 -0.0048267 -0.00273206 0.0165397 -0.00491133 0.00203533 -0.0319268 -0.0322259 -0.000168845 -0.00756226 -0.0109212 -0.00799023 -0.0108914 -0.00216793 -0.0184615 -0.00614861 -0.00764198 -0.0233031 2.95303e-08 -0.0220894 0.0109815 -0.00660714 -0.0266161 0.0103482 -0.0147267 -0.0177685 -0.0142677 -0.0135089 0.00681104 -0.00661445 0.0022213 -0.0180524 -0.0230148 0.00390588 0.00123666 0.0213499 0.0334854 -0.00157631 -0.00258698 -0.000301468 -0.000506736 -0.0143022 0.00190095 0.00502225 -0.0235682 -0.0162506 0.0281975 0.00733809 0.0123102 -0.0116278 0.00182203 -0.0122493 0.0191819 -0.0127768 -0.0128552 -0.00224989 -0.297392 -0.00674895 0.0274871 -0.00511409 0.00334809 0.0172582 0.00202572 -0.0133335 -0.0093084 0.0264617 0.0128915 -0.000348661 -0.00652453 -0.0101827 0.0308568 -0.0217246 -0.00270235 0.00456021 0.0218192 0.0107741 0.00730872 -0.0161165 0.0134758 -0.0055995 -0.00314012 -0.0168635 0.0372053 -0.00578507 -0.0130141 -0.0224386 0.00228635 -0.00211199 -0.00461696 -0.00506281 -0.00770594 0.0012361 -0.00426458 0.00925698 0.0339001 0.00348139 0.00683236 -0.00568823 0.0078409 -0.00150713 -0.00948444 0.00839008 0.00372763 -0.0113262 -0.00073079 -0.000409736 0.0132905 -0.0197012 -0.0266834 -0.0225948 0.013432 0.0427668 0.00779165 -0.00105253 -0.0228622 0.0062787 0.00677627 -0.0073272 -0.00241059 -0.0182711 0.0109522 0.0063711 -0.00019302 0.0212971 0.0184404 -0.00680263 0.0144852 -0.00660412 -0.00344337 -0.038708 -0.0132797 -0.0150315 0.0104709 -0.00878337 -0.0112264 0.00880871 0.010232 0.00844246 0.00855632 -0.00570104 -0.0147218 0.0117166 -0.0195961 0.00158776 -0.0020155 0.00527985 0.00385958 -0.00784442 0.00888132 0.0177757 0.0148506 -0.018295 -0.0284977 -0.0148453 0.00992363 0.000824004 0.000166888 -0.0305602 0.00656699 0.0263134 0.00298913 0.0129657 0.0168944 -0.00656381 -0.0136555 0.0108528 0.000384702 0.0120755 0.00302159 0.000130168 -0.242002 -0.0107261 -0.0135472 -0.00046511 0.000751222 0.0194672 -0.00288154 0.000387974 -0.00209053 -0.000385052 -0.00207622 0.00291787 0.0192825 0.000476277 -0.000742649 0.0125592 -0.00366966 0.0069411 -0.00166429 -0.0208257 0.0181923 -0.00265276 -0.00333207 0.0145028 0.0272944 0.0113681 0.0131907 -0.00852159 -0.0256864 -0.00881787 -0.0057946 0.0123205 0.0158312 -0.0125958 0.0221635 0.000510275 -0.00678879 0.00742208 0.0126827 -0.0172767 0.0241012 -0.00317474 0.00438016 -0.0138665 0.0204316 0.0173751 0.0162898 0.0170569 -0.00633751 0.0182937 0.0205559 -0.00727968 0.00432868 0.0143922 0.0224773 0.0115336 0.0161694 0.00955454 -0.0283733 0.0211058 -0.00528842 0.00354617 0.002431 0.00120387 0.0110195 0.0177824 -0.0183774 0.00100037 0.0192731 -0.000670618 0.01293 0.00506379 0.00387123 -0.000252147 0.0091073 -0.00245241 -0.00250639 0.00319861 0.0299862 0.0237214 0.0177266 0.00126012 0.0208667 0.0168459 0.0103399 -0.0179452 0.0195566 -0.022002 0.00774038 0.0168398 -0.00895039 0.0519814 0.000434915 -0.00561547 0.020924 0.000442055 -0.000259084 -0.00880838 -0.0210912 -0.0167525 -0.0107856 0.0022294 0.00815768 0.00861256 0.0362651 0.0120689 -0.00410611 0.00894317 0.00125349 0.00756086 0.0545818 0.0140917 0.0184381 0.00421503 0.0100409 -0.0475102 0.0231004 -0.00345492 -0.000174305 -0.0174032 0.032043 0.00585403 0.00698328 -0.00435479 -0.0101251 0.018928 0.0117733 -0.00718479 0.022135 0.0193714 0.00918227 -0.00940876 0.00694883 -0.0119404 0.00810646 0.00173862 0.0165332 0.0192928 -0.00246417 0.00706808 0.0214895 -0.00756896 0.00462086 0.0073762 0.0364942 -0.0152409 0.00400166 0.0113201 0.00694339 0.0467048 -0.0098942 0.0108753 0.00304421 0.000107825 0.0342622 0.00220869 -0.0169093 0.0142314 0.0261287 0.0024356 0.00724406 0.00830293 0.0307261 2.74224e-08 0.0170824 0.00505898 0.0231572 0.0219897 -0.00986793 -0.003159 0.00768239 0.00574545 0.00504502 0.00650943 0.0138319 0.0136657 0.0150706 -0.00240921 0.0273907 -0.00262636 0.0367134 0.0118236 -0.0178055 -0.0158057 -0.00966366 -0.00653032 0.00453925 -0.00588503 0.00540703 -0.0190804 -0.0212309 0.00769221 -0.0328334 -0.0122124 -0.00586905 -0.00919995 -0.0133885 -0.00729461 0.00394673 -0.0118919 -0.00201849 0.0115476 0.00035052 -0.0203971 0.0152361 0.0212748 0.00465019 -0.0101618 -0.0214538 -0.0603819 -0.0162254 0.00994779 -0.100766 -0.0125227 -0.0172035 -0.0162792 -0.02319 -0.00561206 0.00621288 -0.0190881 -0.00950475 -0.0100972 0.00207298 0.00351996 -0.0250336 -0.03949 -0.00425943 -0.0064849 -0.00885031 -0.00723916 -0.0101806 -0.0137952 0.0237094 -0.0327898 -0.00455482 0.0054658 -0.0148935 0.0285059 -0.017027 0.0107576 -0.0430479 0.0297253 -0.0276939 -0.0208366 -0.0108063 0.00423899 0.0172019 0.0115442 -0.0136054 -0.0217063 -0.013186 -0.0117098 0.0176967 -0.0150222 0.00978906 -0.0209765 0.0312561 -0.0097684 0.0444457 0.00927793 -0.0138186 0.0279755 -0.024888 0.00506336 -0.0161613 -0.0168146 0.00410643 -0.0135743 0.00398041 -0.00790537 -0.0122292 -0.0211143 -0.0232103 -0.0173882 -0.0222271 -0.0152937 0.00396961 -0.00503747 -0.0148444 -0.0138284 -0.00764757 -0.0211325 0.00332333 -0.0211323 0.020974 -0.0135878 -0.0325901 0.011253 -0.0222414 -0.0088777 0.0206058 0.0324896 -0.0220361 0.00772795 -0.0257085 -0.0113477 0.00944334 -0.0305003 0.00492979 0.0276739 -0.00139805 -0.0130945 -0.0159678 -0.00238038 -0.00414356 0.027229 -0.00353246 0.0191682 2.25719e-05 -0.0113531 -0.0121033 -0.24017 0.0411791 -0.0176372 -0.0337958 -0.0105087 0.0287638 0.00490801 0.000767402 -0.0153783 0.0141234 -0.0324804 0.0957479 -0.0013814 -0.0176705 0.0598266 -0.0254685 -0.0287923 0.00557392 -0.0169633 -0.018882 -0.00865578 0.00520891 0.0143561 -0.0289575 0.0150833 -0.0227779 0.0184893 -0.0153606 0.000230747 -0.0370636 -0.0170026 -0.0162698 -0.0288065 -0.00737768 -0.102353 0.00986963 -0.0109368 -0.00351549 0.0294295 0.00452674 -0.00807433 -0.00792574 -0.00517238 -0.0142212 -0.00797342 -0.00333531 -0.0336649 -0.0143793 -0.0184297 -0.0154995 0.0391527 -0.0213731 -0.00970207 0.0209662 -0.0132882 0.0539587 0.000246633 -0.00613317 -0.031258 -0.00150359 -0.000296292 -0.0110663 -0.0240951 -0.0192683 -0.0227412 -0.00336713 -0.0405085 -0.0346192 -0.0152175 0.00790067 -0.00289792 -0.0092702 -0.0254258 -0.0139619 -0.0470735 -0.0696576 0.023777 -0.0566211 -0.0138595 0.0235537 -0.00636871 -0.0191827 -0.0186589 0.0215295 -0.00564726 -0.0174298 -0.00175074 -0.017838 -0.00241177 -0.0377758 -0.0181195 -0.0200754 0.0261912 -0.0151348 -0.0120564 -0.0228644 -0.00201279 0.0338698 -0.0109604 -0.0228764 -0.0438421 0.00676811 -0.0409831 -0.0212156 -0.0226335 -0.0198241 -0.0535647 0.0211409 -0.0193703 0.0260904 -0.0340508 -0.0214125 -0.0650657 -0.00289924 -0.0145937 -0.0139787 -0.00614051 -0.00254797 0.0126033 -0.0355262 -0.00507847 -0.0143667 -0.00902843 -0.0318176 0.0104637 -0.0344484 -0.0217125 -0.018041 -0.0149409 -0.0187628 -0.0133235 -0.0171942 0.000520559 0.0242737 -0.00526366 -0.00769405 0.00738172 0.00740025 -0.0191359 0.0223704 -0.0217755 -0.0288325 -0.0284001 -0.0272533 -0.0075363 4.41644e-05 -0.0932352 -0.000602059 -0.0105737 -0.0179166 -0.0117891 0.0196681 0.0116831 -0.0268671 -0.0279487 -0.0015093 0.0260762 -0.0171715 0.00399672 -0.0326876 -0.0298363 -0.020448 -0.0151984 -0.000139559 -0.0139394 -0.0615849 -0.0327983 -0.00690875 -0.0183592 -0.0306373 -0.00772063 -0.0192732 -0.0470227 -0.020826 -0.0454741 -0.02003 -0.0176023 -0.0269019 -0.0255395 -0.0145514 -0.0188621 -0.0153641 -0.0170942 -0.0161743 -0.0110534 -0.0240165 -0.0049568 -0.00574823 -0.0152485 -0.034449 0.0363041 -0.0457398 -0.0111443 -0.0461379 -0.0369491 -0.0130049 -0.0480438 -0.00366448 0.0121443 -0.00673972 -0.00622718 0.0508723 -0.00539428 0.0110731 0.0142642 -0.0287412 -0.0159456 0.000938918 -0.0238535 -0.0191608 -0.0162981 -0.200776 -0.0121464 -0.00956182 -0.0386371 -0.0144651 0.0281412 0.018652 -0.00418384 -0.0238005 0.000209443 -0.00787089 -0.00168345 -0.011165 -0.010293 -0.0036118 -0.031997 -0.0233952 -0.00246014 -0.0283717 0.00858042 -0.0284703 -0.0227335 0.0262428 -0.0251185 -0.00948471 -0.00267228 -0.0141333 -0.0279806 -0.0263788 -0.0525349 -0.00215805 -0.00744776 -0.0192233 -0.021525 -0.00548641 -0.0349188 -0.0257561 -0.0256433 0.0327939 -0.0173608 -0.00727591 0.000401418 -0.00186421 -0.00681861 -0.0314184 0.0071053 0.00193567 -0.0125688 -0.0415241 -0.0192471 0.0313603 -0.018805 0.00155399 -0.0366838 -0.0259027 0.0507084 0.00389684 -0.0179742 0.00170133 0.00687935 -0.0248164 0.00308652 -0.0291618 0.000118936 -0.0249105 0.00157083 -0.00821617 -0.0525838 -0.0115999 -0.0235746 -0.0277479 -0.00896019 0.020757 -0.0405576 -0.0357449 0.0045161 -0.00429024 -0.0375708 -0.00651406 -0.0108827 -0.051018 -0.00709915 -0.00256223 -0.0102171 -0.00171468 -0.00405785 0.000805947 0.00929639 -0.0181577 -0.00181963 0.0208497 0.0107019 0.0004675 0.00551414 -0.00744722 0.00445499 -0.00681939 -0.0025086 0.00551061 0.0111481 0.00624952 -0.027689 -0.00342976 -0.00427826 -0.0186778 0.00476974 -0.0127572 0.00899844 0.0370792 -0.00605137 0.0149047 -0.425793 -0.00331442 -0.000915229 -0.00720144 0.00225217 -0.00371053 -0.00723094 0.0221793 0.00503299 -0.0126351 -0.000741386 -0.0109563 0.0199576 -0.00387795 -0.0148494 -0.00590609 0.000491725 -0.0110501 0.000545216 -0.00292194 -0.00986835 0.0010223 -0.0531493 -0.00454567 0.0660631 0.00421656 -0.000671274 0.0109598 -0.0135061 0.0130999 0.0147868 0.0116019 -0.00614984 0.034218 0.0440937 -0.00640944 -0.00210797 0.00985901 -0.0145566 0.02333 0.00412296 0.00315983 0.00514219 0.00192982 0.020363 -0.00480046 0.02146 0.00188685 -0.0207361 0.00436235 -0.00986375 1.46364e-07 0.00423315 -0.0098197 -0.016653 -0.00894188 -0.0130879 0.00505232 0.0177013 -0.0270121 0.00451136 0.01973 -0.00192729 -0.0107408 0.00522292 -0.0157404 0.00264167 0.0107302 0.00710705 -0.0004088 -0.00110054 -0.00664752 -0.0142232 -0.0113983 0.00721743 -0.0164438 0.0152092 -0.0152589 0.0231374 0.0152323 -0.00361035 0.00302009 0.0157114 -0.00571423 -4.29886e-05 -0.000880657 -0.0039449 0.0113839 0.00242611 0.0326399 0.012083 0.0264279 -0.00505448 -0.00786371 -0.00839368 0.0202003 0.00196788 0.0021121 -0.0130371 0.0114535 0.00255802 0.000700097 0.00330702 -0.0325229 0.0255351 0.00794094 -0.0015058 0.00195583 -0.00141239 0.0241243 0.0168625 0.0303027 0.0149359 0.0179887 0.0133195 0.0152368 -0.0144717 -0.0116172 0.0182098 0.0189413 -0.00949873 -0.0339113 0.0016398 -0.00179951 0.0259588 0.0367969 -0.000292868 -0.00284086 0.011899 0.00736067 0.0442431 0.0021072 0.0122478 -0.00205425 -0.00246024 -0.0078259 0.0106703 0.0276797 -0.0204595 0.00745489 0.00940731 -0.000560079 -0.015808 -0.00989921 0.000252748 0.000489294 -0.00905907 -0.0111482 0.00505108 0.058741 0.0130837 0.00468122 -0.00313646 0.00539546 0.0785967 -0.00914429 -0.0056725 -0.00854638 0.0143965 0.0021911 -0.00347555 -0.0061805 -0.00311036 -0.030683 0.0160732 -0.00531685 -5.41605e-05 -0.00521175 -0.00477135 -0.00631901 -0.00511364 0.00852956 -0.00507954 0.000987985 0.00998162 0.00864675 0.00713481 0.0435094 0.00964451 0.0166088 -0.0126118 0.00158074 -0.00763415 0.00360428 -0.00161047 -0.00894945 0.01639 0.00242977 0.0260944 0.0143594 0.00136039 0.00510976 0.00121627 0.0029607 0.0108622 0.00820179 0.0119396 0.0270702 -0.00905217 0.00257182 -0.00236216 0.00367453 -0.00315019 -0.000737853 0.00958505 0.0119951 0.0349902 0.00576693 0.0151654 -0.111392 -0.00745156 -0.00334068 0.0132209 0.0038587 -0.0225975 0.00681133 0.00913467 -0.00328442 -0.00340964 0.0143861 -0.00774347 0.00622901 -0.0103525 0.0099719 -0.00531389 0.00645658 0.00265744 -0.0190412 -0.00760747 0.0239337 0.016949 0.00027998 0.00928051 -0.00219893 0.0106177 -0.00567351 -0.00724695 0.00108282 -0.000180988 -0.0155159 -0.01202 0.0104835 -0.00927351 0.0300402 0.00960867 0.00464153 -0.011823 -0.00111923 0.04786 0.00502375 0.0028081 0.00172319 -0.00121169 0.0159108 0.00292835 0.0237019 0.0034623 0.00481329 0.020814 0.0117147 0.00565065 0.00484828 0.00513182 0.0146199 -0.00116147 -0.00965648 0.00643094 0.0117124 0.00554942 0.00570009 -0.00659508 0.00612248 0.00836853 -0.00112826 0.00573767 0.00305414 -0.00509244 0.00520535 -0.0131182 -8.20928e-06 0.02246 0.0152346 0.00880956 -0.000141834 -0.00798009 0.0124959 0.0326865 0.0184053 0.0467745 0.0169236 0.0166758 -0.00442782 0.00801858 0.0281442 0.0232055 -0.0115837 0.00255757 0.015388 -0.0134023 -0.00406491 0.015218 0.00218589 0.00215929 -0.0113351 -0.00223967 0.00469971 -0.00616151 0.00622596 -0.000504438 0.0177202 0.00223014 0.00380329 0.013526 0.0463927 0.0133052 0.00374244 -0.0104896 0.0245604 0.0209328 0.0156234 0.00444835 0.0035121 0.00523803 0.0136249 -0.00636321 0.00991008 -0.00676949 0.00264488 0.0059376 0.00119576 0.00308093 0.00392526 0.000345228 0.0121354 0.0275726 -0.011594 -0.0126985 0.000865697 0.0203783 0.00714788 0.00207241 -0.00764854 0.00571733 0.00879553 0.00883663 0.0226454 0.021548 -0.0118517 -0.0137465 0.0228307 -0.00232471 -0.00101601 0.0440073 0.0385582 0.0139601 -0.00164593 0.0157091 0.0179359 0.0401428 -7.4195e-08 0.0163233 -0.00264234 0.0320844 0.0574177 0.00290383 -0.00466488 0.00968669 0.0171358 0.0052196 -0.00359086 -0.0012195 0.0154286 0.00619259 -0.0173965 -0.00509473 0.0202847 0.0217978 0.00154514 -0.00072375 0.00793383 0.00708542 0.0017615 -0.00390559 0.00616969 0.0110731 0.00148627 0.00576171 0.0149745 0.0129587 -0.00646359 0.0125019 0.0120298 0.0100004 0.0311355 0.00932124 0.00946121 0.0188148 -0.0115139 -0.00125616 -0.011486 0.0190856 0.0268431 0.00900238 0.0079744 0.0489276 0.0109435 0.0373344 -0.0123918 -0.0020985 0.0240245 -0.000226028 0.0084205 -0.000299608 0.00396346 0.0364396 0.00356456 0.0295215 -0.474684 -0.0163407 0.0289689 0.00494619 0.0186004 0.0183935 -0.00130784 0.0121486 0.00412579 0.0102198 0.027284 -0.00043734 0.00106544 0.0143073 0.00238312 0.000978979 -0.0118546 0.0215638 0.00394617 -0.00140228 0.0422336 -0.00033982 0.000214571 -0.00154591 0.0260083 -0.00504876 0.00188132 0.00176808 -0.00223193 0.00534877 0.00926992 0.00405787 -0.00394623 0.0303606 0.0558924 0.000678703 -0.0158731 -0.0114652 0.0148043 0.0653036 -0.00286719 0.0126956 0.0124493 0.0187424 0.0279729 0.00173208 0.0440905 0.0262869 0.00554658 0.0144564 0.0232562 0.00313824 -0.0201191 -0.0112499 -0.00331238 -0.0215266 0.00841544 -0.00498866 0.0168925 -0.00683053 0.0202218 -0.00699405 0.00340165 0.000653336 -0.0175045 0.00454478 0.00396769 0.0172931 -0.00296943 -0.00733172 -0.0010844 0.0123708 -0.028857 0.00854881 0.0110277 0.0252068 0.0071216 0.0150917 0.00565419 0.0497464 0.00439822 0.0197024 -0.0063482 0.0135622 0.00249097 0.0209405 0.0317509 -0.0168809 -0.00398974 0.0194583 0.00898849 0.0505382 8.26459e-05 -0.0160785 0.0110676 0.00400068 0.0134856 0.0125833 0.0081987 -0.00444262 -0.00664397 0.0109322 0.00631209 0.0247648 0.0355725 0.0129961 -0.00155351 0.022301 0.0607279 0.0206558 0.0534991 0.0131319 0.0203647 0.0805299 -0.00452368 0.0067549 0.0121817 -0.00712624 -0.00205565 0.00875654 0.0419202 0.0100922 -0.00510239 -0.0101014 0.00213787 0.0437785 -0.00104495 0.000858907 0.0200761 0.020688 0.025186 0.0501815 0.00737906 0.0132778 0.0119904 0.0100199 0.012492 0.0314917 0.0065301 0.0134153 0.0396832 0.0184229 0.0122027 0.0160022 0.018677 0.020179 -0.0061465 -0.000380666 0.0332919 0.0294565 0.00329748 0.00676799 -0.0221039 0.0182087 0.0592491 0.00895415 0.00442448 0.0300374 0.00533895 0.0148725 -0.0310742 -0.00215492 0.00319307 0.0379031 0.00722204 0.00720166 0.00597189 0.00854794 0.00726115 0.0182053 -0.00171834 0.00550818 0.00807483 0.00821864 -0.00454575 0.0138566 0.00798759 -0.00230828 -0.00129531 0.0667723 -0.00108341 0.00456489 -0.0137737 0.00650752 -0.0183717 -0.00461548 0.0135905 0.0247242 0.00248326 -0.00779559 -0.00285135 -0.0114106 0.00505954 0.0015857 0.010824 0.0129359 0.00384633 0.00366505 0.00861602 0.0125882 -9.60236e-05 0.00255123 0.0123574 0.0136641 0.0265481 -0.000703845 0.0125839 -0.395423 0.0108799 -0.000403389 -0.00582461 0.00733419 0.0186637 0.00902965 0.00716849 0.0162709 0.00029153 0.00970734 0.0102622 0.0115833 0.0044622 0.0159534 0.0037032 0.000674611 -0.00750181 0.014674 0.00572214 0.0231889 0.000293417 0.00335699 0.00691719 0.00435638 0.014892 -0.000449809 0.0083773 0.0155282 0.0149826 0.0111086 -0.00168749 0.0175359 0.0210396 0.0551878 0.0105195 0.00134981 -0.00980369 -0.0109896 0.0423705 0.0139961 0.00394645 0.0289223 0.010604 0.0114467 -0.00660857 0.0112871 -0.00595619 0.00479168 0.0275233 -0.000981654 0.0110987 -0.00194144 0.000952184 0.0122735 -0.0022354 0.00215508 0.00253935 0.0107399 -0.0215345 -0.0454295 0.0123171 0.00700062 0.00248884 -0.00106207 0.0123768 0.000462204 0.0105486 0.00402056 0.00389131 0.002158 -0.00292512 0.0208486 0.000717034 0.0015745 0.0240479 0.00775239 0.0137094 -0.00159858 0.0385753 0.019885 0.00237003 0.00347569 0.0118461 0.00989423 0.0203392 0.00324365 -0.00215581 0.0125909 0.0536983 0.00134698 0.0346762 -0.000525514 -0.0021156 0.0124629 0.013364 0.00227218 -0.0305197 -0.00950776 0.0121889 -1.19209e-07 -0.00687794 0.00410288 0.0113551 0.0375191 0.019893 -0.000535576 0.00398053 0.0221245 0.0112881 0.0414167 0.0101375 0.00943527 0.0125917 0.00101674 0.00472453 -0.000135247 -0.0044486 0.00177434 0.00940284 -0.000459599 0.0135986 0.000878168 -0.0164695 0.00339498 0.0296466 -0.00716996 -0.0225138 -0.00882053 0.00382837 0.000980895 0.00188906 0.00973044 -0.00185222 -0.003158 0.00483577 0.014982 0.0385689 -0.00642458 0.0119749 -0.0134725 0.0131288 0.00676217 0.0159406 0.020609 0.0104802 -0.00534741 -0.0120041 0.00184999 0.0690677 -0.00432607 -0.00444864 0.00497396 0.000545575 0.0212964 0.012648 0.0029417 0.0156104 0.0110797 0.0095829 0.00166949 0.000885282 -0.00850652 -0.0150787 0.00995455 0.00461665 0.0210644 0.00401574 0.0132905 0.00814536 0.00606238 0.00635458 0.00491234 0.0125968 -0.00916203 -0.0087299 0.00491984 -0.0138626 0.0116246 0.0193369 0.00773073 -0.00445413 0.00117309 0.0112771 -0.0157562 0.0188593 -0.0139663 -0.000625738 0.0162608 0.0115884 -0.0122075 0.0160513 -0.0100504 0.0164318 -0.0262898 0.0124293 0.0175434 -0.0144995 -0.00687388 0.0205738 -0.0030199 0.00588037 -0.01445 0.0196263 -0.00448192 -0.00321148 -0.0394239 0.00479173 0.000584325 0.00596265 0.00069494 0.0017129 0.00591499 -0.0129753 -0.00933152 0.000384609 -0.00251003 -0.0205456 0.00613351 0.017489 -0.0013833 0.00727876 0.0119908 0.00501086 0.00274007 0.00367467 -0.00552216 -0.00276843 0.0010501 0.00180519 0.0348411 -0.00114142 0.009118 0.00251831 -0.0132207 -0.0165265 -0.0339063 0.00468444 0.00638527 0.0268454 0.0105582 0.00243064 0.00121183 -0.00950871 0.00137112 -0.0131901 0.00479212 0.00105981 -0.0227721 0.00488466 0.00187567 -0.0150399 0.0365003 0.00326493 -0.00208324 0.0115133 0.0313949 0.00395153 0.0129331 0.00566567 -0.00424563 -0.00346353 0.0120933 0.00224867 0.000377135 0.0152833 -0.00120296 0.00666496 -0.0026835 0.0184866 -0.00496399 0.000649391 0.0109884 -0.00905624 0.00341677 0.00331595 0.00604921 0.00427561 0.0102929 0.00524642 0.00891222 0.00153821 -0.0167046 -0.0152447 0.0175272 0.035557 0.0169643 0.0187062 -0.00881556 -0.0081206 -0.00986857 -0.00630033 0.0185267 0.0114841 0.00292198 0.0229636 0.00991142 0.0144585 0.00467053 -0.00276699 0.0101463 0.00522071 -0.000706338 -0.0106044 -0.0235783 -0.0323274 0.00215954 -0.0149142 0.00208128 0.0146534 0.00602971 -0.00316575 0.0019773 -0.0013366 0.0276034 -0.0423766 0.0617432 0.0183097 0.00698074 0.0446428 0.00514086 -0.00386895 -0.00522331 -0.00345118 0.0063594 -0.00679881 0.00622356 -0.00342237 -0.00663227 -0.00297351 -0.000558214 0.0221312 0.0160123 -0.009933 -0.0126338 -0.00651627 0.0106304 0.00690545 0.00927255 -0.00323719 -0.00286909 -0.00278717 -0.00344494 0.0388041 -0.011826 0.0221973 0.0247201 0.00884481 -0.00607945 0.0064162 0.0276671 0.00545657 0.015217 -0.00527654 0.00724987 0.0239424 -0.00343356 -0.0252987 -0.0202223 0.00235892 0.0715734 0.00029658 -0.0105842 0.0101413 -0.00502612 -0.00856073 -0.00072527 0.0101745 0.00118796 0.0150781 0.000320408 0.00154401 0.00789729 0.00227815 -0.000890539 -0.0055135 0.00603384 0.0100118 -0.0245871 0.0116175 -0.009045 -0.00552015 -0.00112797 0.00407792 0.0257462 -0.000436676 -0.00618863 -0.0160103 -0.0551521 -0.00658927 0.0203418 0.00349494 0.00779688 -0.0151798 -0.0051795 0.0142859 -0.0232665 -0.0179115 0.013974 0.0167022 0.0139003 -0.0227011 0.0207813 -0.000831049 -0.0156962 0.000975393 0.0174214 -0.0076015 0.0137741 0.00263631 0.023537 -0.20415 -0.0169142 0.0117668 -0.0302631 0.000119802 0.0163981 -0.0125304 -0.0211661 -0.00521499 0.00511384 -0.0143441 0.00973582 0.00157744 -0.0286048 -0.0175419 -0.0214448 -0.014907 -0.00160099 -0.0070222 -0.000865236 0.0689223 -0.0354557 -0.0158264 0.0335798 -0.0736962 -0.00378659 -0.0146234 -0.00968927 0.00106036 0.0138322 -0.0191643 -0.0208902 -0.00858904 -0.0349455 0.0312995 -0.0121705 -0.029485 -0.0380914 -0.035165 0.0296965 -0.00622183 -0.0295875 0.0130326 0.0130995 0.0369071 -0.0121983 -0.00370086 -0.0325473 -0.000857159 0.0266283 -0.0250945 -0.0171285 -0.0179268 -0.0221401 -0.00477511 -0.0127238 -0.00717647 0.0104617 -0.0132835 0.0108815 -0.00332922 -0.00996741 -0.00832113 -0.0125223 -0.00653311 -0.00101039 -0.0273453 -0.00559643 -0.00645155 0.00724995 -0.00770181 -0.00621223 -0.00906632 -0.010232 -0.0158331 0.0252489 0.0029296 -0.00415779 0.00579818 0.0023557 -0.017805 -0.023836 -0.00816718 -0.00178146 0.00379088 0.00739962 -0.00438632 -0.0159582 0.0112364 0.0593917 -0.00781072 -0.00492335 -0.00955575 -0.00852706 -0.0239866 0.0004129 -0.00970126 -0.00575772 0.00293577 -0.0219842 -0.0190768 -0.00927856 0.000497977 0.00226448 0.0264291 -0.00717627 0.00302272 -0.0231185 0.0140658 -0.00655913 0.0481121 -0.0188412 -0.0135134 0.00411623 0.01616 -0.00944565 -0.0374879 -0.0192293 -0.00374012 0.00770892 -0.00291593 0.0128513 0.00529723 -0.0106211 -0.0126836 0.0419102 -0.0182316 -0.00127571 -0.0269203 0.0180269 0.00546729 0.0149211 -0.0054908 -0.0148769 0.0329549 -5.26199e-05 -0.0208554 0.0364017 -0.0327688 0.0196233 0.00322 -0.0143632 -0.0188164 -0.00537853 0.00400696 0.0112085 -0.00611702 -0.012107 -0.0334512 0.0472795 0 -0.0183663 -0.00704582 -0.0123808 0.0532136 0.0198326 -0.0170431 0.00230973 -0.0239288 0.00811202 0.00144401 -0.00296374 -0.0118628 0.00156979 -0.0125402 -0.00251912 0.0098935 0.000587434 0.0231065 0.00248456 -0.0164535 -0.00144137 0.00568672 0.00177034 -0.017486 0.00360992 0.00103065 -0.0269714 0.00736279 0.0156118 -0.00356208 -0.00510678 -0.00640888 -0.00713614 0.0142796 0.0054374 0.01561 -0.0308745 -0.00670474 0.0107151 -0.0121021 0.0175918 -0.0103321 -0.00551294 0.00380752 -0.0067719 0.00398902 0.0212985 -0.0118511 -0.00415718 -0.0119272 0.0155305 -0.00549492 0.00450183 -0.294397 0.00276296 0.00441098 0.00238889 -0.00606516 0.0166215 0.00980508 -0.0101815 -0.00735247 -0.000944727 -0.00918059 -0.019086 0.016045 -0.00257443 -0.0153515 0.0122116 -0.00741859 0.00545827 0.00122425 -0.0138513 0.0413813 -0.000697883 0.0056554 0.009583 0.0465564 0.0167146 -0.00908607 0.0277263 0.0048001 0.00707881 0.00245692 -0.00200532 0.0269097 0.0317612 0.0456173 0.000107604 0.018985 -0.00857273 -0.0161925 0.0122427 -0.0063527 0.00292688 0.0146742 0.00197814 0.0211403 -0.00281953 0.0191418 -0.00434102 -0.00882034 0.000449008 0.00657425 0.0360449 0.00892446 -0.00430684 -0.000656245 -0.0210435 -0.0109241 0.00526937 0.0163052 0.00885077 -0.0109132 -0.0235179 0.0117849 0.00372678 -0.00587791 -0.00239563 -0.000165186 -0.00535578 0.0102459 2.78731e-05 -0.00370589 -0.00639012 0.0135026 0.00763155 -0.00358799 0.00540525 0.00743373 0.00280191 0.0188558 0.040932 -0.00216578 0.0100722 -0.00332338 0.00360297 0.0128896 0.0208715 0.00974876 0.00311041 0.000442117 0.06796 -0.00504515 0.0426017 -0.00433024 -0.0173444 0.00882255 -0.00557095 -0.00127442 -0.0158849 -0.000292927 -0.00152025 0.00867237 -0.00102974 -0.0122838 0.00479368 0.0272536 0.0121202 -0.0324615 -0.0164185 0.00885747 0.00374646 0.0462479 0.00388302 0.00260977 0.0485856 -0.00790461 0.00270823 0.0123022 -0.0119516 -0.00796421 0.00849797 0.00733839 0.0156455 0.00301194 0.000208747 0.000715626 0.0497761 -0.0101489 0.00504801 0.0202352 0.000448506 0.0105618 0.0126712 0.00277394 -0.00724798 -0.0175375 -0.00855873 0.0197074 0.0318814 -0.00579819 0.00380965 0.0152212 0.00899084 0.00128035 0.0154794 0.00915154 0.00946499 -0.00843242 -0.0173881 0.0222068 0.0694352 0.00429064 -0.00520495 0.00979806 -0.0140269 0.0402391 0.00160281 -0.0317457 0.0088752 0.0111107 -0.00477596 -0.009192 -0.00862257 0.00321418 -0.0167192 0.0200954 8.84709e-05 -0.00348584 -0.0058283 -0.00373858 -4.97615e-05 -0.0141572 -0.000220726 0.000597296 -0.0053551 0.0107745 0.00707974 -0.0131158 -0.0150617 0.00160824 -0.0248395 -0.0156497 0.00299442 -0.00966775 -0.00461666 -0.00403946 0.00758206 0.00554903 8.18167e-05 -0.00029252 -0.00536313 0.0186913 0.000517817 0.00124699 0.0158037 -6.58701e-06 0.0135094 0.007492 -0.00354899 -0.00188378 -0.0111897 0.0219545 -0.00889587 0.00516735 -0.111023 -0.0165446 0.00279025 -0.00862673 -0.00232237 -0.00740386 0.0105257 -0.0159928 0.0131888 0.00350849 -0.00376383 -0.000235907 0.00169446 -0.00614167 -0.0122715 0.00413946 -0.000939533 0.00505041 0.0107246 -5.74916e-05 0.00801819 -0.00387985 -0.00417387 0.00185247 -0.00973348 0.00583232 -0.00603466 0.00917599 0.00190297 0.00542546 -0.0340043 0.00418799 0.0018554 0.022106 0.0258855 0.000969328 -0.00235748 -0.000259698 0.0277733 -0.0166454 0.0147526 -0.0138647 0.00464511 -0.0076192 0.0323401 0.00307759 0.0348593 -0.0285989 -0.0113068 0.00958216 0.020432 -0.0025701 0.00578132 -0.00802102 0.0126481 -0.00353333 -0.0132577 -0.00516846 -0.0114754 0.000235263 -0.0149557 0.00117521 -0.00501616 0.00640509 0.00229676 0.0137844 -0.0189952 -0.000507878 0.000853103 0.00418118 -0.00329421 -0.00654833 -0.00219318 0.00817101 -0.0020141 -0.00103559 0.0235503 -0.0129885 -0.011052 0.0405507 -0.00889769 -0.000887971 -0.00728327 0.00236349 -1.38987e-05 -0.0383689 0.0179141 0.0167098 -0.00315939 -0.00310795 -0.00340715 0.0119436 -0.000466741 0.00780666 -0.0016225 0.0195226 0.00359773 0.00217413 0.00398874 -0.00804982 0.0164269 -0.00946348 -0.00906316 0.00552465 0.0365372 0.00426647 0.00788488 -0.00605172 0.0243847 0.0290429 0.0590076 0.00894735 -0.00112407 0.0409553 -0.017515 -0.00827173 -0.0205202 -0.000188701 -0.0135517 0.00397514 0.0160554 0.00960578 -0.000123114 0.000880487 -0.00489656 0.0252829 -0.00736745 -0.00922003 -0.00422545 -0.00841274 0.00645601 -0.000206321 0.00912278 0.000609498 -0.0116542 -0.0211221 -0.0399516 0.0234152 -0.00547483 0.0149374 0.0123831 0.00529261 -0.0107901 0.00418189 -0.0106429 0.00390328 -0.00623753 -0.00364353 -0.00394528 0.0524396 -0.00593868 -5.77529e-08 -0.00122179 -0.00683515 0.0805199 0.0123124 -0.00833885 -0.00326154 0.00903008 -0.00636959 -0.0172759 -0.0230242 -0.0124799 -0.00879981 0.00438267 -0.00739851 -0.00140532 0.00382253 0.00118548 0.00041721 -0.00763979 0.0064894 -0.0040649 -0.00869623 0.00554073 0.0216473 0.0101542 0.00440234 0.0174852 -0.0270672 -0.00243625 0.0222894 0.0259756 -0.0101543 -0.00189048 0.033123 -0.0160692 -0.0120108 0.0467141 0.0298493 0.0169371 -0.0222402 -0.0113165 -6.67945e-05 0.00725442 -0.00424078 0.000653895 0.0140558 -0.00922541 -0.0193582 0.00285068 -0.00822232 -0.255593 -0.000892788 -0.00689761 -0.0146108 -0.0116234 0.0188799 0.012306 -0.0257686 -0.0128504 0.00598259 -0.0124136 0.0205154 0.036042 5.89806e-17 -0.00100229 0.0311631 0.00528708 -0.00299454 0.0111442 -0.0230087 0.0658471 0.00560987 0.00825523 -0.00636926 0.0366678 0.0210582 -0.0038248 0.0105914 -0.0118625 0.0199362 -0.011356 0.0117907 0.0052743 -0.00990032 0.0523787 -0.00340568 -0.00505388 -0.00595937 0.0198989 0.0204592 0.00755341 -0.00215665 0.0142127 -0.000915901 0.0184466 -0.0215433 0.0169425 0.0103763 0.0154858 0.00828787 0.0180301 -0.00651205 0.000861203 -0.000959191 -0.00723411 0.00596902 0.00450922 0.0260498 0.0119331 0.029811 -0.0108883 -0.00598362 0.0127872 0.00307256 -5.53341e-05 0.0170898 0.00483342 0.00891665 -0.0133744 -0.000532715 0.00817617 0.0125691 -0.0370886 0.0163222 0.0167903 -0.00662106 0.0181123 0.00396921 0.0379763 0.0376345 0.0190903 0.0455242 -0.00879454 0.0037767 -0.00186272 0.00803149 0.00635785 0.0287816 0.00381067 0.0467916 -0.00107064 0.0142368 0.00175389 -0.00635709 0.0118155 0.0107157 0.0309901 -0.00246074 -0.0159793 0.0247894 0.00227474 -0.018746 0.0167491 0.00186905 0.0678791 -0.000716178 -0.0409149 -0.00147392 0.0341035 0.0120512 0.0413207 0.00463124 0.00485432 0.0139516 0.0318961 0.00588223 -0.000569782 -0.0130123 -0.00293828 0.00247753 -0.00835351 0.00624927 0.0287967 -0.0260448 0.00977015 0.048527 0.0100842 0.0110102 0.0392246 0.0139679 0.0213522 -0.00823847 -0.00445696 -0.00233484 0.0297998 0.0446756 0.00854115 0.0260756 -0.00278336 0.0112979 0.00899688 0.012945 -0.0160809 0.0166038 0.0341933 0.0217779 0.0216564 0.0473236 -0.0229257 0.0663328 0.00118687 -0.00422409 0.00891534 0.0170897 0.0621889 -0.00534255 -0.028939 0.0222046 -0.000687487 -0.0129995 -0.00900677 0.00361843 -0.0210767 0.0115804 0.00511429 0.00531753 0.0290482 0.0168723 0.0033131 0.00184549 -0.0160279 -0.0223569 -0.000492677 0.00624535 0.0129473 0.0199138 -0.0308528 0.0100129 0.0170259 -0.00125937 0.0241505 0.0263567 0.00284986 0.013171 -0.0426378 -0.038739 0.0162358 0.00339182 0.0218677 0.00619579 0.01307 8.41339e-08 0.0103229 -0.00504912 -0.00956539 0.00874562 0.00156061 0.00414614 0.025566 -0.00376972 0.0107585 -0.26693 -0.0126981 -0.00942701 -0.00976118 -0.0132834 0.0100276 0.00435095 0.0110689 -0.0086378 -0.00352988 0.00536999 0.00471617 0.00902091 -0.00508376 -0.0152941 -0.0058044 0.0120048 -0.00189158 0.0117723 -0.00725645 0.0376567 -0.0156967 0.00184682 0.00544783 0.0321989 -0.00307956 0.000260335 0.0101707 -0.0146572 0.00383533 0.0141831 -0.00267922 0.0135539 0.0488099 0.0242255 0.00565686 -0.00953722 0.00305441 0.00952252 0.0396202 0.0109396 -0.000437938 -0.00221055 0.00910493 0.00916465 0.00638149 0.0235837 -0.0018383 -0.00375523 0.00988814 0.0333457 -0.000353232 0.000301124 -0.00991531 0.00795949 -0.020353 -0.00717787 0.0147196 0.0108437 0.00513679 0.00572206 0.00370719 0.0055637 0.00774455 -0.0147451 0.00800475 0.0199051 0.0167474 0.000970139 -0.0218526 0.0101383 -0.0145585 -0.000578001 -0.0131339 -0.0135105 0.00203871 0.00961688 0.0134031 0.00405281 0.0477482 0.00621319 0.00568367 0.00805596 0.00859249 0.0182798 0.00368291 0.010748 0.00673087 0.00781258 0.0529258 0.000915557 0.0149119 -0.0109816 0.0156365 0.00937728 0.00758744 -0.00338184 -0.00458885 0.00310286 -0.00091317 0.0250737 -0.00526279 -0.00436804 0.00128953 0.043509 -0.00334438 0.000664597 -0.00273408 0.0387229 0.0218507 0.0344837 -0.0123332 0.000919255 0.0329314 -0.00151121 0.0081194 0.000607866 7.83646e-06 0.00764366 0.0104163 0.00526945 0.00258963 -0.000148777 0.00491118 0.00184713 0.0366344 0.00498254 -0.00536452 0.00326468 -0.00467935 0.0132238 0.00740113 0.0099879 -5.79693e-05 -0.00599411 0.000787651 0.0213733 0.0507817 -0.0157968 0.0168451 -0.00657788 0.0183226 1.98918e-05 0.0054767 0.0176285 0.000962232 -0.0026049 0.00057139 0.0263099 0.0441242 -0.0022651 0.0119723 0.0171276 -0.00212197 0.0227729 -0.000605247 0.00261536 -0.0130273 0.0160784 0.000472071 0.00310435 0.029115 0.0124069 0.00782004 0.00997839 0.0174553 0.00629187 0.000718304 0.0030081 0.00121714 0.0168583 -0.00199755 0.0149634 0.00989543 0.00057395 0.0150991 0.00724449 -0.0103322 0.0125482 0.0300113 0.0101094 0.0237838 0.0318696 0.00047997 -0.0262467 -0.00813244 -0.0378181 -0.0114564 0.0138227 0.0127698 -0.0130045 -0.00183507 -0.00267473 -0.014213 -0.00774448 -0.0433745 -0.0330831 0.0208395 0.00486413 0.00444498 -0.205662 -0.0462069 -0.0251586 0.00436405 -0.0138751 0.000766535 -0.0186438 -0.0345756 -0.0342924 -0.00599245 -0.0115939 -0.0206226 -0.0106575 -0.0216631 -0.00645415 0.00347319 0.0251969 -0.00294179 -0.0196521 -0.0120526 0.0135699 -0.0200143 -0.00374924 -0.0025658 -0.0269077 -0.0008278 -0.0104172 -0.0158045 0.0075251 -0.0131811 -0.00798844 -0.0252713 -0.000407064 0.031794 0.0378012 -0.0101907 -0.0118077 -0.0273876 0.0173849 0.00308821 -0.0134249 0.00582279 -0.0129072 -0.0214694 0.00436678 -0.00185144 0.00979591 -0.011384 -0.00219188 -0.00702821 -0.0130964 -0.0206107 -0.0187872 -0.00129156 -0.0145012 -0.0230049 0.00972847 -0.0123654 0.00464354 -0.0121149 0.0134238 -0.028024 0.00157624 0.0102784 -0.0271147 -0.0180597 -0.0224161 -0.0691336 -0.00869736 -0.00716316 0.00750603 -0.0154199 0.00446635 -0.00440177 -0.0161031 -0.0104947 0.00176565 0.00288005 0.0152544 0.0326131 0.0157056 0.00737554 -0.125739 -0.0331866 -0.011524 0.00266872 0.00207256 -0.0196908 -0.0225494 0.0174254 0.00472583 0.0469011 0.0142037 -0.0372538 -0.00928842 -0.0301297 0.00139562 0.0243454 -0.00603625 -0.0106307 -0.0169616 -0.00587476 -0.016113 -0.0273156 0.0358358 0.00478005 0.0467567 -0.0221025 -0.0503568 -0.00938245 0.0270782 -0.00671719 -0.0335085 0.0449925 -0.00225912 -0.038064 -0.0232349 -0.0545613 0.00484982 -0.00245825 -0.0408216 -0.0302772 -0.0071626 -0.00924797 -0.0133136 0.0305801 -0.0123237 0.0291538 0.0126431 0.0151497 -0.00190968 -0.00585142 -0.0146978 0.00163171 -0.0219994 -0.0467377 0.00684478 0.0346504 -0.0102641 0.0145028 -0.00200773 0.0008441 -0.0197243 -0.00770301 0.0295392 0.0155277 -0.0175424 -0.0295366 0.00811627 0.0288288 -0.00983101 0.0129698 -0.0132561 0.0157305 0.045421 -0.00872396 -0.011343 -0.0191077 -0.0093532 -0.0222647 -0.00994852 -0.0518206 -0.0192023 -0.0301038 0.00405837 -0.00524109 0.0186956 -0.00765932 -0.0105664 -0.00966491 -0.00902271 -0.0130133 -0.0299224 -0.0223779 -0.0156435 0.0360331 -0.0289507 0.00676931 -0.0120084 0.0331096 0.00488308 0.0117599 -0.0132133 0.0189852 -0.0165958 -0.00958646 -0.0359343 -0.00252333 0.00046036 0.00346313 0.00233586 -0.0101936 -0.00249964 -0.00391387 -0.00618583 0.00768416 0.0253042 -0.00170048 0.0155793 -0.135149 -0.0204377 -0.00131563 -0.0148984 -0.0218063 0.0578794 0.00630566 0.00846113 0.00330798 -0.00386466 -0.00591176 -0.0225169 -0.0158761 -0.0157408 0.00654733 0.0152546 0.013122 0.0156511 0.00330061 -0.0206961 0.0123866 0.050459 0.013731 -0.00113752 0.0601246 0.0207832 -0.0100907 -0.019016 -0.0159663 0.00571675 -0.0277091 -0.0191434 0.00163909 0.0190721 0.0190762 -0.0244388 -0.0121221 0.0138628 -0.00225724 0.028043 0.0239387 -0.0101183 0.0110826 -0.00928107 0.0354611 -0.0295768 0.0206446 0.0115256 0.00249039 0.0144293 0.0484095 -0.00855607 -0.0166295 3.6802e-05 -0.00163002 0.00756318 -0.00317398 0.00200514 0.0215653 0.0105918 0.0111871 -0.00125492 0.00395312 -0.0167841 -0.0169813 0.00291082 -0.0286903 -0.00386159 -0.0180132 -0.0290492 -0.000777964 -0.0210488 0.0221303 -0.0132485 -0.00394711 0.0201029 0.0303808 0.0215682 0.0138515 0.0365686 -0.00843295 -0.00945774 -0.00308007 0.00386232 0.00600175 -0.0090874 -0.00441643 -0.00176583 -0.0176842 0.0278016 0.00481023 0.0739786 0.00729775 0.00930384 0.0135197 0.00176525 -0.00244895 -0.0280686 -0.0151561 -0.00936734 0.0258616 0.0134557 0.0086159 